{"learner":{"attributes":{"scikit_learn":"{\"_estimator_type\": \"classifier\"}"},"feature_names":[],"feature_types":[],"gradient_booster":{"model":{"gbtree_model_param":{"num_parallel_tree":"1","num_trees":"100"},"iteration_indptr":[0,1,2,3,4,5,6,7,8,9,10,11,12,13,14,15,16,17,18,19,20,21,22,23,24,25,26,27,28,29,30,31,32,33,34,35,36,37,38,39,40,41,42,43,44,45,46,47,48,49,50,51,52,53,54,55,56,57,58,59,60,61,62,63,64,65,66,67,68,69,70,71,72,73,74,75,76,77,78,79,80,81,82,83,84,85,86,87,88,89,90,91,92,93,94,95,96,97,98,99,100],"tree_info":[0,0,0,0,0,0,0,0,0,0,0,0,0,0,0,0,0,0,0,0,0,0,0,0,0,0,0,0,0,0,0,0,0,0,0,0,0,0,0,0,0,0,0,0,0,0,0,0,0,0,0,0,0,0,0,0,0,0,0,0,0,0,0,0,0,0,0,0,0,0,0,0,0,0,0,0,0,0,0,0,0,0,0,0,0,0,0,0,0,0,0,0,0,0,0,0,0,0,0,0],"trees":[{"base_weights":[-1.302483E-7,-4.77359E-1,7.727056E-1,-6.9009006E-1,8.1800956E-1,-1.3172528E0,9.164785E-1,-1.8003441E-1,-1.2844201E0,1.052524E0,-6.9794214E-1,5.412944E-1,-1.4019599E0,6.674518E-1,1.7901995E0,5.479668E-1,-8.798823E-1,-1.5767133E0,-5.8171606E-1,1.3153187E0,-4.0890798E-1,-1.4623082E0,4.3368903E-1,-1.6764646E0,-7.639945E-1,7.664691E-1,-1.1955674E0,1.8010561E0,-4.5643058E-1,8.75674E-1,-9.7344315E-1,-1.0873537E0,1.737281E0,-1.7908969E0,-1.2560049E0,-1.3133429E0,-1.8155406E-1,2.639025E-1,1.4515582E0,-6.037342E-1,1.6649652E0,-7.112012E-1,-1.7643706E0,-3.0931023E-1,1.5697627E0,-1.1336241E0,-1.8796538E0,-4.243577E-2,-1.1545472E0,1.2321539E0,4.709902E-1,-1.6134615E0,3.8233227E-1,1.1439508E0,1.8324467E0,-3.0761826E-1,2.9306337E-1,-3.840988E-1,3.3291824E-2,-5.4526E-1,-2.729024E-1,-5.3055364E-1,5.825529E-1,-5.485476E-1,-3.6697993E-1,3.4332354E-2,-4.378419E-1,-4.8866853E-1,-8.211429E-2,1.5313755E-1,-3.1637117E-1,2.4356636E-1,-1.6687755E-1,-3.7911132E-2,4.48079E-1,-3.4080824E-1,5.20307E-3,1.0209638E-1,5.5490446E-1,-3.7881333E-1,4.249085E-1,-5.485675E-1,-3.76968E-2,1.3160446E-1,-4.987164E-1,-1.1811689E-1,5.0982934E-1,1.7623112E-2,-4.850193E-1,-5.774235E-1,1.0828715E-1,1.089214E-1,-4.0261313E-1,-3.8842306E-1,3.357841E-1,2.8282842E-1,4.7853464E-1,5.9932864E-1,1.07841246E-1,1.1655583E-2,-5.4035044E-1,-4.457821E-2,5.0690323E-1,-8.2933605E-2,4.159886E-1,-3.3159298E-1,5.5106485E-1],"categories":[],"categories_nodes":[],"categories_segments":[],"categories_sizes":[],"default_left":[0,0,0,0,0,0,0,0,0,0,0,0,0,0,0,0,0,0,0,0,0,0,0,0,0,0,0,0,0,0,0,0,0,0,0,0,0,0,0,0,0,0,0,0,0,0,0,0,0,0,0,0,0,0,0,0,0,0,0,0,0,0,0,0,0,0,0,0,0,0,0,0,0,0,0,0,0,0,0,0,0,0,0,0,0,0,0,0,0,0,0,0,0,0,0,0,0,0,0,0,0,0,0,0,0,0,0],"id":0,"left_children":[1,3,5,7,9,11,13,15,17,19,21,-1,23,25,27,29,31,33,35,37,39,41,43,45,47,49,51,53,-1,55,57,59,61,63,65,67,69,71,73,75,77,79,81,83,85,87,89,91,93,95,97,99,101,103,105,-1,-1,-1,-1,-1,-1,-1,-1,-1,-1,-1,-1,-1,-1,-1,-1,-1,-1,-1,-1,-1,-1,-1,-1,-1,-1,-1,-1,-1,-1,-1,-1,-1,-1,-1,-1,-1,-1,-1,-1,-1,-1,-1,-1,-1,-1,-1,-1,-1,-1,-1,-1],"loss_changes":[5.283745E3,2.440558E3,1.6448599E3,2.3054749E3,4.449355E2,9.573474E1,1.1125112E3,2.0865317E3,7.205664E2,4.162677E2,1.4594695E2,0E0,5.8916565E1,7.360137E2,4.3536865E1,1.0017185E3,1.1356135E3,1.6811572E2,3.0233032E2,1.3107593E2,6.7973816E1,2.1546127E1,5.830496E1,2.4285156E1,2.9610363E1,5.2015283E2,1.3348138E2,2.1242676E1,0E0,3.1887805E2,1.18696075E2,2.4941455E2,1.1369327E2,2.9447266E1,2.7802515E2,1.1937372E2,4.048468E2,4.8315277E1,5.4066772E1,5.035149E1,2.918335E0,3.757535E1,7.2381744E0,4.348896E1,7.606827E0,3.9120705E1,1.8147522E1,2.0512733E1,2.320546E1,1.5274072E2,3.937743E2,4.9537506E1,3.0096745E1,1.9082718E1,1.6081543E1,0E0,0E0,0E0,0E0,0E0,0E0,0E0,0E0,0E0,0E0,0E0,0E0,0E0,0E0,0E0,0E0,0E0,0E0,0E0,0E0,0E0,0E0,0E0,0E0,0E0,0E0,0E0,0E0,0E0,0E0,0E0,0E0,0E0,0E0,0E0,0E0,0E0,0E0,0E0,0E0,0E0,0E0,0E0,0E0,0E0,0E0,0E0,0E0,0E0,0E0,0E0,0E0],"parents":[2147483647,0,0,1,1,2,2,3,3,4,4,5,5,6,6,7,7,8,8,9,9,10,10,12,12,13,13,14,14,15,15,16,16,17,17,18,18,19,19,20,20,21,21,22,22,23,23,24,24,25,25,26,26,27,27,29,29,30,30,31,31,32,32,33,33,34,34,35,35,36,36,37,37,38,38,39,39,40,40,41,41,42,42,43,43,44,44,45,45,46,46,47,47,48,48,49,49,50,50,51,51,52,52,53,53,54,54],"right_children":[2,4,6,8,10,12,14,16,18,20,22,-1,24,26,28,30,32,34,36,38,40,42,44,46,48,50,52,54,-1,56,58,60,62,64,66,68,70,72,74,76,78,80,82,84,86,88,90,92,94,96,98,100,102,104,106,-1,-1,-1,-1,-1,-1,-1,-1,-1,-1,-1,-1,-1,-1,-1,-1,-1,-1,-1,-1,-1,-1,-1,-1,-1,-1,-1,-1,-1,-1,-1,-1,-1,-1,-1,-1,-1,-1,-1,-1,-1,-1,-1,-1,-1,-1,-1,-1,-1,-1,-1,-1],"split_conditions":[-3.0961898E-1,1.2052599E0,-8.057998E-1,-1.8033434E-1,3.3215305E-1,4.4123758E-2,-4.1283715E-1,1.758214E-1,3.6748078E-1,3.577001E-1,8.951979E-1,5.412944E-1,-9.1662854E-1,1.6636965E0,2.1943246E-1,1.6598289E-1,-4.1826257E-1,-4.3823034E-1,-8.0766626E-2,6.559755E-1,1.6502258E0,8.721253E-1,2.708503E0,-2.6869074E-1,1.7772457E-1,-4.2261124E-2,-4.1843995E-1,-9.8909515E-1,-4.5643058E-1,-8.1800646E-1,1.1582731E0,-9.6086615E-1,-3.238391E-1,1.3223715E0,-6.057326E-3,8.951979E-1,3.577001E-1,-6.057326E-3,-1.3862602E0,-2.573696E-2,1.1774602E0,2.5489426E0,4.3265767E0,-7.335722E-1,8.9198285E-1,9.4502085E-1,2.0899262E0,-3.265592E-1,-4.1283715E-1,-4.2329705E-1,4.4123758E-2,6.827426E-2,-4.2158556E-1,4.164818E-1,-9.922747E-1,-3.0761826E-1,2.9306337E-1,-3.840988E-1,3.3291824E-2,-5.4526E-1,-2.729024E-1,-5.3055364E-1,5.825529E-1,-5.485476E-1,-3.6697993E-1,3.4332354E-2,-4.378419E-1,-4.8866853E-1,-8.211429E-2,1.5313755E-1,-3.1637117E-1,2.4356636E-1,-1.6687755E-1,-3.7911132E-2,4.48079E-1,-3.4080824E-1,5.20307E-3,1.0209638E-1,5.5490446E-1,-3.7881333E-1,4.249085E-1,-5.485675E-1,-3.76968E-2,1.3160446E-1,-4.987164E-1,-1.1811689E-1,5.0982934E-1,1.7623112E-2,-4.850193E-1,-5.774235E-1,1.0828715E-1,1.089214E-1,-4.0261313E-1,-3.8842306E-1,3.357841E-1,2.8282842E-1,4.7853464E-1,5.9932864E-1,1.07841246E-1,1.1655583E-2,-5.4035044E-1,-4.457821E-2,5.0690323E-1,-8.2933605E-2,4.159886E-1,-3.3159298E-1,5.5106485E-1],"split_indices":[7,18,2,8,12,7,17,0,18,0,1,0,2,5,12,1,19,11,3,10,0,1,10,12,4,6,17,1,0,18,1,2,7,15,0,1,0,0,12,12,10,4,8,0,20,6,7,9,17,19,7,14,19,7,18,0,0,0,0,0,0,0,0,0,0,0,0,0,0,0,0,0,0,0,0,0,0,0,0,0,0,0,0,0,0,0,0,0,0,0,0,0,0,0,0,0,0,0,0,0,0,0,0,0,0,0,0],"split_type":[0,0,0,0,0,0,0,0,0,0,0,0,0,0,0,0,0,0,0,0,0,0,0,0,0,0,0,0,0,0,0,0,0,0,0,0,0,0,0,0,0,0,0,0,0,0,0,0,0,0,0,0,0,0,0,0,0,0,0,0,0,0,0,0,0,0,0,0,0,0,0,0,0,0,0,0,0,0,0,0,0,0,0,0,0,0,0,0,0,0,0,0,0,0,0,0,0,0,0,0,0,0,0,0,0,0,0],"sum_hessian":[1.4322607E4,8.853507E3,5.4691E3,7.6050415E3,1.2484658E3,3.5149036E2,5.11761E3,4.0933877E3,3.5116538E3,1.0814703E3,1.6699542E2,8.74976E0,3.427406E2,3.9838909E3,1.1337189E3,2.006445E3,2.0869429E3,2.4791821E3,1.0324717E3,9.1672485E2,1.6474548E2,9.949727E1,6.7498146E1,2.3849345E2,1.0424714E2,3.7833962E3,2.004945E2,1.130469E3,3.2499108E0,1.6512047E3,3.5524026E2,1.934197E3,1.5274582E2,1.4837094E3,9.954727E2,3.6424002E2,6.682317E2,1.0549711E2,8.112278E2,1.5124585E2,1.349963E1,2.9499191E1,6.999808E1,4.124887E1,2.624928E1,6.674817E1,1.7174529E2,3.6998985E1,6.724815E1,1.4674597E3,2.3159365E3,1.5849565E2,4.1998848E1,5.324854E1,1.0772205E3,8.299773E1,1.568207E3,2.767424E2,7.849785E1,3.767397E2,1.5574573E3,7.9997807E0,1.4474603E2,1.3894619E3,9.424741E1,1.2874648E2,8.6672626E2,2.7899234E2,8.5247665E1,3.7298978E2,2.952419E2,6.3248264E1,4.224884E1,2.0999424E1,7.9022833E2,8.099778E1,7.024808E1,1.9999452E0,1.1499684E1,2.374935E1,5.749842E0,6.724815E1,2.7499247E0,2.699926E1,1.4249609E1,1.4999589E0,2.4749321E1,1.9499466E1,4.7248703E1,1.6849538E2,3.2499108E0,2.8749212E1,8.249774E0,6.3748253E1,3.4999042E0,8.1847754E2,6.489822E2,1.5649571E2,2.1594407E3,1.6249554E1,1.422461E2,3.0499165E1,1.1499684E1,7.7497873E0,4.5498753E1,1.2499657E0,1.0759705E3],"tree_param":{"num_deleted":"0","num_feature":"22","num_nodes":"107","size_leaf_vector":"1"}},{"base_weights":[-1.0342123E-3,-1.2147712E0,1.7071056E-1,-8.151135E-1,-1.4667665E0,-1.7111915E-1,6.507936E-1,-2.577375E-1,-1.0964763E0,-1.480036E0,-4.5694917E-2,-3.5551764E-2,-1.1561501E0,1.1964967E0,3.6356845E-1,2.5808698E-1,-1.2942973E0,-1.3700534E0,-8.7117255E-1,-1.5008463E0,-7.610804E-1,1.4139493E0,-4.4307294E-1,4.13551E-1,-5.499023E-1,-1.3772768E0,4.439507E-2,6.8778247E-1,1.3325131E0,5.683024E-1,-2.0912701E-1,4.9473745E-1,-1.3043605E0,-1.5563127E0,-1.7515482E-1,-1.4516653E0,-7.111342E-1,-5.500236E-1,-1.4515136E0,-1.2148455E0,-1.561767E0,-1.0966418E0,4.4478396E-1,4.7070542E-1,1.3044077E-1,7.624272E-1,-3.52033E-1,-6.117296E-1,1.1007084E0,-1.5119163E0,-9.648036E-1,-7.861899E-1,8.7237346E-1,1.0619813E0,6.300147E-2,1.4889482E0,1.0523589E0,-5.067402E-1,6.461265E-1,-6.761739E-1,9.000153E-1,-5.705321E-1,1.8805885E-1,-4.4894E-1,1.375866E-1,-4.781976E-1,-4.4602867E-2,-4.1920304E-1,2.0568077E-1,-4.5166472E-1,-2.6091328E-1,1.1020254E-1,-4.4336498E-1,1.0534293E-1,-3.6322445E-1,-4.4819954E-1,2.4951135E-1,-4.219111E-3,-4.4101128E-1,-4.0571447E-2,-4.6949306E-1,-4.667515E-1,2.0744433E-1,1.9016615E-1,5.493267E-1,-2.711178E-1,2.668473E-1,1.3017452E-1,-2.1260409E-1,1.0211832E-2,5.456972E-1,-4.682419E-1,-3.6310095E-1,5.292996E-1,-3.2147408E-1,6.828361E-2,-4.1173637E-1,3.165937E-1,-4.1716176E-1,3.2933798E-1,-3.9204156E-1,-1.7242642E-1,3.3197874E-1,4.495444E-1,-2.7661467E-1,3.4320757E-1,-2.2514834E-1,8.443158E-3,-3.3657902E-1,1.7543435E-1,5.2018404E-1,-4.3892944E-1,-3.363737E-2,3.014352E-1,-2.2636022E-1],"categories":[],"categories_nodes":[],"categories_segments":[],"categories_sizes":[],"default_left":[0,0,0,0,0,0,0,0,0,0,0,0,0,0,0,0,0,0,0,0,0,0,0,0,0,0,0,0,0,0,0,0,0,0,0,0,0,0,0,0,0,0,0,0,0,0,0,0,0,0,0,0,0,0,0,0,0,0,0,0,0,0,0,0,0,0,0,0,0,0,0,0,0,0,0,0,0,0,0,0,0,0,0,0,0,0,0,0,0,0,0,0,0,0,0,0,0,0,0,0,0,0,0,0,0,0,0,0,0,0,0,0,0,0,0],"id":1,"left_children":[1,3,5,7,9,11,13,15,17,19,21,23,25,27,29,31,33,35,37,39,41,43,-1,45,47,49,51,53,55,57,59,61,63,65,67,69,71,73,75,77,79,81,-1,-1,-1,83,85,87,89,91,93,95,97,99,101,103,105,107,109,111,113,-1,-1,-1,-1,-1,-1,-1,-1,-1,-1,-1,-1,-1,-1,-1,-1,-1,-1,-1,-1,-1,-1,-1,-1,-1,-1,-1,-1,-1,-1,-1,-1,-1,-1,-1,-1,-1,-1,-1,-1,-1,-1,-1,-1,-1,-1,-1,-1,-1,-1,-1,-1,-1,-1],"loss_changes":[2.8789822E3,1.7122705E2,1.9856625E3,1.0389603E2,1.970874E1,9.438009E2,7.883086E2,1.2018466E2,2.5997742E1,1.4403076E1,2.451246E1,1.4356213E3,2.270492E2,1.1912378E2,3.868495E2,5.6295227E1,2.1616486E1,9.587494E0,4.4800903E1,1.5678223E1,2.5159191E1,2.0224857E-1,0E0,8.864722E2,2.9631842E2,3.8641724E1,9.28114E1,8.5983185E1,5.837793E1,2.0363129E2,4.5094492E2,4.2809082E1,7.4843597E0,2.964386E0,1.7041079E1,4.1706543E0,2.0161102E1,9.5165054E1,9.637985E0,5.56398E1,3.5804443E0,2.3873898E1,0E0,0E0,0E0,3.1197803E2,7.1269684E2,2.8345312E2,8.034927E1,6.111328E0,5.447783E1,4.037259E1,2.943541E1,2.0956665E1,9.31035E1,2.149939E1,8.241577E1,5.41931E1,1.5022906E2,2.7161957E2,4.5485687E1,0E0,0E0,0E0,0E0,0E0,0E0,0E0,0E0,0E0,0E0,0E0,0E0,0E0,0E0,0E0,0E0,0E0,0E0,0E0,0E0,0E0,0E0,0E0,0E0,0E0,0E0,0E0,0E0,0E0,0E0,0E0,0E0,0E0,0E0,0E0,0E0,0E0,0E0,0E0,0E0,0E0,0E0,0E0,0E0,0E0,0E0,0E0,0E0,0E0,0E0,0E0,0E0,0E0,0E0],"parents":[2147483647,0,0,1,1,2,2,3,3,4,4,5,5,6,6,7,7,8,8,9,9,10,10,11,11,12,12,13,13,14,14,15,15,16,16,17,17,18,18,19,19,20,20,21,21,23,23,24,24,25,25,26,26,27,27,28,28,29,29,30,30,31,31,32,32,33,33,34,34,35,35,36,36,37,37,38,38,39,39,40,40,41,41,45,45,46,46,47,47,48,48,49,49,50,50,51,51,52,52,53,53,54,54,55,55,56,56,57,57,58,58,59,59,60,60],"right_children":[2,4,6,8,10,12,14,16,18,20,22,24,26,28,30,32,34,36,38,40,42,44,-1,46,48,50,52,54,56,58,60,62,64,66,68,70,72,74,76,78,80,82,-1,-1,-1,84,86,88,90,92,94,96,98,100,102,104,106,108,110,112,114,-1,-1,-1,-1,-1,-1,-1,-1,-1,-1,-1,-1,-1,-1,-1,-1,-1,-1,-1,-1,-1,-1,-1,-1,-1,-1,-1,-1,-1,-1,-1,-1,-1,-1,-1,-1,-1,-1,-1,-1,-1,-1,-1,-1,-1,-1,-1,-1,-1,-1,-1,-1,-1,-1],"split_conditions":[-7.738865E-1,-2.0860635E-1,-3.0961898E-1,1.758214E-1,1.4818331E0,2.8408557E-1,5.395788E-1,1.5531187E-1,-1.2745507E0,1.2725488E0,-5.8777034E-1,1.758214E-1,1.6728896E0,-3.2089978E-1,4.9442664E-1,9.621346E-1,2.8599364E-1,9.527027E-1,-2.1108189E-1,-4.400091E-1,8.787453E-2,-1.4336555E-1,-4.4307294E-1,1.6598289E-1,1.6502258E0,8.951979E-1,8.951979E-1,6.427524E-1,6.160962E-1,-8.1800646E-1,-4.1907752E-1,-1.7279401E0,-5.992406E-1,8.163246E-1,-4.36927E-1,1.8803406E0,6.667097E-1,2.4676524E-2,6.598166E-2,-6.057326E-3,-1.1854297E0,9.720548E-1,4.4478396E-1,4.7070542E-1,1.3044077E-1,-9.7386E-4,9.576667E-1,-1.115731E0,-1.7627132E-1,2.3400621E0,1.0133538E0,8.721253E-1,8.389087E0,1.6636965E0,-4.1283715E-1,1.5189992E-1,1.1959887E0,1.0406046E0,2.8599364E-1,-3.096393E-1,6.160962E-1,-5.705321E-1,1.8805885E-1,-4.4894E-1,1.375866E-1,-4.781976E-1,-4.4602867E-2,-4.1920304E-1,2.0568077E-1,-4.5166472E-1,-2.6091328E-1,1.1020254E-1,-4.4336498E-1,1.0534293E-1,-3.6322445E-1,-4.4819954E-1,2.4951135E-1,-4.219111E-3,-4.4101128E-1,-4.0571447E-2,-4.6949306E-1,-4.667515E-1,2.0744433E-1,1.9016615E-1,5.493267E-1,-2.711178E-1,2.668473E-1,1.3017452E-1,-2.1260409E-1,1.0211832E-2,5.456972E-1,-4.682419E-1,-3.6310095E-1,5.292996E-1,-3.2147408E-1,6.828361E-2,-4.1173637E-1,3.165937E-1,-4.1716176E-1,3.2933798E-1,-3.9204156E-1,-1.7242642E-1,3.3197874E-1,4.495444E-1,-2.7661467E-1,3.4320757E-1,-2.2514834E-1,8.443158E-3,-3.3657902E-1,1.7543435E-1,5.2018404E-1,-4.3892944E-1,-3.363737E-2,3.014352E-1,-2.2636022E-1],"split_indices":[10,12,7,0,7,12,0,1,2,11,4,0,18,15,5,5,5,11,9,19,18,1,0,1,0,1,1,11,13,18,17,0,15,11,12,6,15,5,2,0,6,14,0,0,0,0,18,8,10,9,1,1,12,5,17,12,5,11,5,10,13,0,0,0,0,0,0,0,0,0,0,0,0,0,0,0,0,0,0,0,0,0,0,0,0,0,0,0,0,0,0,0,0,0,0,0,0,0,0,0,0,0,0,0,0,0,0,0,0,0,0,0,0,0,0],"split_type":[0,0,0,0,0,0,0,0,0,0,0,0,0,0,0,0,0,0,0,0,0,0,0,0,0,0,0,0,0,0,0,0,0,0,0,0,0,0,0,0,0,0,0,0,0,0,0,0,0,0,0,0,0,0,0,0,0,0,0,0,0,0,0,0,0,0,0,0,0,0,0,0,0,0,0,0,0,0,0,0,0,0,0,0,0,0,0,0,0,0,0,0,0,0,0,0,0,0,0,0,0,0,0,0,0,0,0,0,0,0,0,0,0,0,0],"sum_hessian":[1.3809189E4,1.7110388E3,1.209815E4,6.63299E2,1.0477399E3,7.0669614E3,5.031189E3,2.231527E2,4.4014633E2,1.0380057E3,9.734081E0,6.2129277E3,8.540338E2,1.7338524E3,3.2973367E3,1.4950525E2,7.364745E1,1.964836E2,2.4366275E2,1.0077487E3,3.0257002E1,4.8251495E0,4.9089317E0,3.316947E3,2.8959807E3,7.2107324E2,1.3296059E2,3.6706198E2,1.3667904E3,2.4289976E3,8.683392E2,1.3043303E2,1.907221E1,5.9359486E1,1.4287964E1,1.7375916E2,2.2724432E1,1.5811363E2,8.554911E1,1.8064171E2,8.27107E2,2.6765285E1,3.4917176E0,3.64539E0,1.1797595E0,2.2785962E3,1.0383508E3,2.7920283E3,1.0395224E2,5.41614E2,1.7945921E2,6.640101E1,6.655958E1,2.2912988E2,1.379321E2,8.7428467E2,4.9250574E2,1.6359706E2,2.2654004E3,6.113128E2,2.5702634E2,6.1154947E0,1.2431754E2,1.7334503E1,1.7377076E0,5.768305E1,1.6764364E0,5.6467547E0,8.64121E0,1.5758148E2,1.6177675E1,9.659169E0,1.3065262E1,6.708478E1,9.1028854E1,8.432569E1,1.2234194E0,3.1846437E1,1.4879527E2,1.9537345E0,8.2515326E2,2.1399675E1,5.3656096E0,2.0353721E3,2.4322414E2,7.190849E2,3.1926593E2,2.3661217E2,2.5554163E3,4.225291E1,6.1699333E1,4.624667E2,7.914731E1,6.172435E0,1.7328677E2,2.4553486E1,4.1847523E1,6.207495E1,4.4846277E0,2.26246E2,2.8838813E0,8.589166E1,5.2040436E1,8.712184E2,3.06632E0,4.6902362E2,2.3482134E1,8.802068E1,7.557637E1,2.145923E3,1.1947728E2,2.5456573E2,3.5674707E2,2.4208957E2,1.4936775E1],"tree_param":{"num_deleted":"0","num_feature":"22","num_nodes":"115","size_leaf_vector":"1"}},{"base_weights":[-2.6997996E-3,-9.3124264E-1,1.3784586E-1,-3.4442723E-1,-1.1267067E0,-1.2480256E-1,5.285977E-1,-1.0341104E0,5.409562E-2,-9.6650755E-1,-1.2837241E0,-2.3577222E-1,7.6283246E-1,2.8764284E-1,9.742137E-1,-1.1002592E0,1.1742904E0,-1.1796027E0,3.3107018E-1,-5.3680134E-1,-1.1134248E0,-1.3157924E0,-7.301094E-1,-9.8607796E-1,-5.2501038E-2,8.574139E-1,-4.5521608E-1,4.4765866E-1,1.8680747E-1,1.0920926E0,3.5326147E-1,-1.1620818E0,2.3765063E-1,5.161695E-1,-1.1134439E-1,-1.3503047E0,3.9479506E-1,1.3268872E0,-3.431966E-2,1.5280876E-1,-1.2021236E0,6.71395E-1,-1.1524668E0,-1.3302919E0,-2.4926567E-1,9.2442E-2,-1.2682991E0,-1.1576307E0,-3.6824024E-1,5.5621487E-1,-4.0754485E-1,9.8424816E-1,-2.1153042E-2,-4.720253E-2,-4.215353E-1,3.2562038E-1,-6.361685E-1,7.8461176E-1,1.2248747E0,8.2371867E-1,-2.4253044E-1,-3.5696957E-1,3.5645032E-1,-3.421645E-1,4.1494125E-1,-2.3564513E-1,-4.822422E-1,-1.9656135E-1,3.3792374E-1,-2.0354287E-1,5.0717324E-1,-7.291438E-2,4.371843E-1,-1.9563984E-2,4.9440083E-1,1.4342964E-1,-3.993259E-1,-2.7789828E-1,3.3211327E-1,-3.6299506E-1,-2.2077452E-1,-1.4211142E-1,-4.0370062E-1,3.8375798E-1,-3.8128152E-1,-3.5053393E-1,2.6651E-1,2.3476245E-2,-4.4629517E-1,-1.9086802E-1,-4.011112E-1,-2.8145164E-1,1.22300126E-1,1.2025491E-1,5.012854E-1,-1.5055597E-1,4.1414008E-1,3.0393657E-1,-4.4123915E-1,-3.8133729E-1,9.966291E-2,-2.759826E-1,2.230114E-1,-1.5646996E-1,1.384821E-1,-4.4811316E-2,-4.629723E-1,-6.953668E-2,2.8232148E-1,1.9692947E-1,3.7650013E-1,-4.9125272E-1,2.944379E-1,1.9631316E-3,-3.5366616E-1],"categories":[],"categories_nodes":[],"categories_segments":[],"categories_sizes":[],"default_left":[0,0,0,0,0,0,0,0,0,0,0,0,0,0,0,0,0,0,0,0,0,0,0,0,0,0,0,0,0,0,0,0,0,0,0,0,0,0,0,0,0,0,0,0,0,0,0,0,0,0,0,0,0,0,0,0,0,0,0,0,0,0,0,0,0,0,0,0,0,0,0,0,0,0,0,0,0,0,0,0,0,0,0,0,0,0,0,0,0,0,0,0,0,0,0,0,0,0,0,0,0,0,0,0,0,0,0,0,0,0,0,0,0,0,0],"id":2,"left_children":[1,3,5,7,9,11,13,15,17,19,21,23,25,27,29,31,33,35,37,39,41,43,45,47,49,51,53,-1,55,57,59,61,63,-1,-1,65,67,69,71,73,75,77,79,81,83,85,87,89,91,93,95,97,99,101,-1,103,105,107,109,111,113,-1,-1,-1,-1,-1,-1,-1,-1,-1,-1,-1,-1,-1,-1,-1,-1,-1,-1,-1,-1,-1,-1,-1,-1,-1,-1,-1,-1,-1,-1,-1,-1,-1,-1,-1,-1,-1,-1,-1,-1,-1,-1,-1,-1,-1,-1,-1,-1,-1,-1,-1,-1,-1,-1],"loss_changes":[1.6929569E3,1.9522534E2,1.1564211E3,1.175737E2,3.092749E1,6.639657E2,4.8604382E2,2.4173325E1,9.3310356E1,3.9620605E1,1.0451172E1,8.2374097E2,8.668967E1,3.5695532E2,1.1593555E2,1.2897629E1,4.892613E0,1.3991287E1,8.113389E1,7.55421E1,3.3790527E1,9.045044E0,1.669232E1,1.2422034E2,1.0410226E3,7.751825E1,2.1106453E1,0E0,3.103775E2,5.354956E1,7.168156E1,1.096022E1,1.3528144E1,0E0,0E0,5.3325424E0,5.09536E0,4.4794792E1,5.1416515E1,2.668777E1,1.8774765E1,8.524994E0,1.0227234E1,7.2390137E0,1.6247505E1,1.6835005E1,6.8215904E0,8.520581E1,1.1404889E2,3.066648E2,5.1369336E2,4.457135E1,3.960664E1,2.7764622E1,0E0,2.679662E2,1.7294987E2,6.469562E1,1.5113525E1,5.701934E1,2.643081E1,0E0,0E0,0E0,0E0,0E0,0E0,0E0,0E0,0E0,0E0,0E0,0E0,0E0,0E0,0E0,0E0,0E0,0E0,0E0,0E0,0E0,0E0,0E0,0E0,0E0,0E0,0E0,0E0,0E0,0E0,0E0,0E0,0E0,0E0,0E0,0E0,0E0,0E0,0E0,0E0,0E0,0E0,0E0,0E0,0E0,0E0,0E0,0E0,0E0,0E0,0E0,0E0,0E0,0E0],"parents":[2147483647,0,0,1,1,2,2,3,3,4,4,5,5,6,6,7,7,8,8,9,9,10,10,11,11,12,12,13,13,14,14,15,15,16,16,17,17,18,18,19,19,20,20,21,21,22,22,23,23,24,24,25,25,26,26,28,28,29,29,30,30,31,31,32,32,35,35,36,36,37,37,38,38,39,39,40,40,41,41,42,42,43,43,44,44,45,45,46,46,47,47,48,48,49,49,50,50,51,51,52,52,53,53,55,55,56,56,57,57,58,58,59,59,60,60],"right_children":[2,4,6,8,10,12,14,16,18,20,22,24,26,28,30,32,34,36,38,40,42,44,46,48,50,52,54,-1,56,58,60,62,64,-1,-1,66,68,70,72,74,76,78,80,82,84,86,88,90,92,94,96,98,100,102,-1,104,106,108,110,112,114,-1,-1,-1,-1,-1,-1,-1,-1,-1,-1,-1,-1,-1,-1,-1,-1,-1,-1,-1,-1,-1,-1,-1,-1,-1,-1,-1,-1,-1,-1,-1,-1,-1,-1,-1,-1,-1,-1,-1,-1,-1,-1,-1,-1,-1,-1,-1,-1,-1,-1,-1,-1,-1,-1],"split_conditions":[-7.276158E-1,-9.4565886E-1,-3.0961898E-1,-1.0293305E0,-8.8437594E-2,1.6728896E0,-4.1913664E-1,-1.0113468E0,-4.1285314E-2,-6.057326E-3,9.385736E-1,-3.238391E-1,5.395788E-1,4.4123758E-2,9.1815546E-2,1.071758E0,4.642126E-1,1.1582731E0,4.4123758E-2,-3.01391E-1,-1.188603E0,1.0133736E0,-6.701222E-1,8.951979E-1,-6.057326E-3,3.3215305E-1,8.750179E-1,4.4765866E-1,9.621346E-1,-4.1496876E-1,-2.7672848E-1,1.6145092E0,-2.6090595E-1,5.161695E-1,-1.1134439E-1,-8.491785E-1,-4.2510772E-1,7.2677886E-1,-4.1526797E-1,-1.7973618E-1,-5.342056E-1,2.4585672E-2,4.164818E-1,-2.5523593E0,-3.353177E-1,-9.345489E-1,-8.473678E-2,8.911177E-1,9.1029155E-1,-1.7973618E-1,-4.2264324E-1,3.8384702E0,1.3649149E0,1.5175266E0,-4.215353E-1,5.1577155E-2,7.752761E-1,-5.496263E-1,-9.8909515E-1,-1.1828727E0,4.779828E-1,-3.5696957E-1,3.5645032E-1,-3.421645E-1,4.1494125E-1,-2.3564513E-1,-4.822422E-1,-1.9656135E-1,3.3792374E-1,-2.0354287E-1,5.0717324E-1,-7.291438E-2,4.371843E-1,-1.9563984E-2,4.9440083E-1,1.4342964E-1,-3.993259E-1,-2.7789828E-1,3.3211327E-1,-3.6299506E-1,-2.2077452E-1,-1.4211142E-1,-4.0370062E-1,3.8375798E-1,-3.8128152E-1,-3.5053393E-1,2.6651E-1,2.3476245E-2,-4.4629517E-1,-1.9086802E-1,-4.011112E-1,-2.8145164E-1,1.22300126E-1,1.2025491E-1,5.012854E-1,-1.5055597E-1,4.1414008E-1,3.0393657E-1,-4.4123915E-1,-3.8133729E-1,9.966291E-2,-2.759826E-1,2.230114E-1,-1.5646996E-1,1.384821E-1,-4.4811316E-2,-4.629723E-1,-6.953668E-2,2.8232148E-1,1.9692947E-1,3.7650013E-1,-4.9125272E-1,2.944379E-1,1.9631316E-3,-3.5366616E-1],"split_indices":[18,8,7,18,12,18,17,8,15,0,14,7,0,7,12,14,4,1,7,1,4,3,9,1,0,12,1,0,5,17,9,1,12,0,0,18,19,14,17,0,9,3,7,0,0,9,12,1,10,0,19,9,10,10,0,7,20,10,1,8,6,0,0,0,0,0,0,0,0,0,0,0,0,0,0,0,0,0,0,0,0,0,0,0,0,0,0,0,0,0,0,0,0,0,0,0,0,0,0,0,0,0,0,0,0,0,0,0,0,0,0,0,0,0,0],"split_type":[0,0,0,0,0,0,0,0,0,0,0,0,0,0,0,0,0,0,0,0,0,0,0,0,0,0,0,0,0,0,0,0,0,0,0,0,0,0,0,0,0,0,0,0,0,0,0,0,0,0,0,0,0,0,0,0,0,0,0,0,0,0,0,0,0,0,0,0,0,0,0,0,0,0,0,0,0,0,0,0,0,0,0,0,0,0,0,0,0,0,0,0,0,0,0,0,0,0,0,0,0,0,0,0,0,0,0,0,0,0,0,0,0,0,0],"sum_hessian":[1.2970601E4,1.7044154E3,1.1266185E4,4.2656354E2,1.2778519E3,6.7379043E3,4.528281E3,1.5563205E2,2.709315E2,6.360592E2,6.417927E2,5.9898096E3,7.48095E2,2.94013E3,1.5881508E3,1.5159312E2,4.038924E0,4.9076473E1,2.2185501E2,1.6324646E2,4.7281274E2,6.053509E2,3.6441826E1,1.175004E3,4.814805E3,6.9446576E2,5.3629177E1,2.2604594E2,2.714084E3,1.334127E3,2.5402377E2,1.4502325E2,6.5698643E0,2.9003897E0,1.1385345E0,4.440433E1,4.672144E0,5.8846355E1,1.6300865E2,8.053835E1,8.2708115E1,9.774433E0,4.630383E2,5.969875E2,8.363391E0,1.4740765E1,2.1701061E1,9.1896484E2,2.560392E2,1.7735393E3,3.041266E3,6.067518E2,8.7713974E1,3.8249477E1,1.53797E1,2.3228833E3,3.912007E2,4.0445276E2,9.2967426E2,1.4172803E2,1.12295746E2,1.4381483E2,1.2084225E0,2.9839816E0,3.5858827E0,1.516086E1,2.924347E1,1.9614961E0,2.710648E0,8.901043E0,4.9945312E1,1.437324E2,1.9276245E1,7.11238E1,9.414548E0,5.702637E0,7.700548E1,1.8528565E0,7.9215765E0,4.0518616E2,5.7852158E1,1.1088575E1,5.858989E2,3.2496865E0,5.1137047E0,5.5231156E0,9.2176485E0,3.129984E0,1.8571077E1,2.3641756E2,6.825473E2,1.4749193E2,1.0854727E2,1.5577843E3,2.1575493E2,2.8895752E3,1.5169086E2,6.0027924E2,6.4725347E0,1.8759089E1,6.895488E1,1.8102222E1,2.0147253E1,3.2089493E2,2.0019883E3,2.5533507E2,1.3586566E2,5.3889854E1,3.505629E2,4.793683E1,8.817374E2,7.9712815E0,1.3375674E2,8.948534E1,2.2810408E1],"tree_param":{"num_deleted":"0","num_feature":"22","num_nodes":"115","size_leaf_vector":"1"}},{"base_weights":[-2.8203414E-3,-8.709193E-1,1.0564838E-1,-5.091655E-1,-1.1241473E0,-5.2097476E-1,2.0230225E-1,-1.0769019E0,-2.680863E-1,-9.0039235E-1,-1.2084063E0,-8.034919E-1,6.179626E-1,6.578267E-1,-2.0251921E-3,-1.1339396E0,-1.9553457E-1,7.631674E-2,-6.317963E-1,-1.0097252E0,1.0597377E0,-1.2364537E0,-4.948767E-1,-9.829706E-1,-2.321606E-1,7.353355E-2,1.0111222E0,5.070206E-1,1.1719253E0,-1.5570323E0,6.6365525E-2,-1.1855185E0,-4.4568297E-1,1.2623008E0,-1.0282532E0,-9.57537E-2,7.803398E-1,-6.859939E-1,1.6654265E0,-1.1521274E0,-5.115843E-2,5.864432E-1,-2.9002634E-1,-1.253133E0,-3.4133744E-1,-8.0585146E-1,3.4231344E-1,-5.3197926E-1,-1.1607938E0,2.19086E-1,-1.1317006E0,7.650519E-1,-7.0164937E-1,1.186088E0,3.4309915E-1,3.9305222E-1,4.2121476E-1,-1.7481746E-2,1.2169945E0,-9.18327E-1,-1.7544254E0,1.5158765E0,-1.0144962E-2,-1.8590742E-1,-3.7448764E-1,2.2787738E-1,-3.077106E-1,4.6240914E-1,5.1135104E-2,-3.3238983E-1,-7.78165E-2,4.1810863E-2,-3.196677E-1,-1.19786374E-1,-3.229298E-1,7.7432865E-1,-2.2734982E-1,-3.9473474E-1,-2.8536E-1,1.2502769E-1,-3.7024906E-1,-2.4272607E-1,-3.8539955E-1,2.979511E-1,-3.6331055E-1,-3.5801286E-1,2.133085E-1,-3.4646022E-1,2.1330367E-1,-3.6195797E-1,-2.4133155E-1,-1.8339631E-1,2.1594632E-1,4.1027528E-1,-3.852019E-1,-4.6397063E-1,2.6245123E-1,7.860629E-2,-4.4359007E-1,3.6616552E-1,-2.1480395E-1,-4.7140643E-1,1.6141212E-1,1.5479015E-1,-2.0567949E-1,-2.4487965E-1,3.1321013E-1,3.7611207E-1,1.2945575E-1,3.529324E-1,-3.4864104E-1,2.8411976E-1,-5.325434E-1,4.6426633E-1,3.777437E-1,-9.054583E-2,1.06680855E-1],"categories":[],"categories_nodes":[],"categories_segments":[],"categories_sizes":[],"default_left":[0,0,0,0,0,0,0,0,0,0,0,0,0,0,0,0,0,0,0,0,0,0,0,0,0,0,0,0,0,0,0,0,0,0,0,0,0,0,0,0,0,0,0,0,0,0,0,0,0,0,0,0,0,0,0,0,0,0,0,0,0,0,0,0,0,0,0,0,0,0,0,0,0,0,0,0,0,0,0,0,0,0,0,0,0,0,0,0,0,0,0,0,0,0,0,0,0,0,0,0,0,0,0,0,0,0,0,0,0,0,0,0,0,0,0,0,0],"id":3,"left_children":[1,3,5,7,9,11,13,15,17,19,21,23,25,27,29,31,33,35,37,39,41,43,45,47,49,51,53,55,57,59,61,63,65,67,69,71,-1,73,75,77,79,-1,-1,81,83,85,-1,87,89,91,93,95,97,99,101,103,-1,105,107,109,111,113,115,-1,-1,-1,-1,-1,-1,-1,-1,-1,-1,-1,-1,-1,-1,-1,-1,-1,-1,-1,-1,-1,-1,-1,-1,-1,-1,-1,-1,-1,-1,-1,-1,-1,-1,-1,-1,-1,-1,-1,-1,-1,-1,-1,-1,-1,-1,-1,-1,-1,-1,-1,-1,-1,-1],"loss_changes":[1.1379249E3,1.2238843E2,6.5073413E2,7.560957E1,1.378241E1,4.6250665E2,8.663275E2,8.0707245E0,4.8972878E1,4.815091E1,1.0796448E1,1.1778729E2,6.113086E1,2.2286035E2,6.8355084E2,4.9641266E0,1.4936333E1,8.7792076E1,2.4807098E1,2.8414688E1,2.3827406E1,7.751465E0,1.27360325E1,6.959253E1,1.1245415E2,6.538996E1,1.899057E1,2.2745325E2,3.5022644E1,3.2527466E1,6.8281494E2,4.317398E0,9.440027E0,1.1185079E0,1.8461132E-1,4.338469E1,0E0,2.0435852E1,1.2324232E1,4.7188873E0,1.6028475E1,0E0,0E0,6.4854736E0,1.4428916E1,1.2665911E1,0E0,1.9393466E2,9.248474E0,7.733312E1,3.696901E1,1.7701748E1,4.348764E1,9.468445E0,1.4225841E1,2.6289676E2,0E0,2.1901024E1,1.7600769E1,3.5088257E1,1.3197693E1,5.618286E-1,6.240799E2,0E0,0E0,0E0,0E0,0E0,0E0,0E0,0E0,0E0,0E0,0E0,0E0,0E0,0E0,0E0,0E0,0E0,0E0,0E0,0E0,0E0,0E0,0E0,0E0,0E0,0E0,0E0,0E0,0E0,0E0,0E0,0E0,0E0,0E0,0E0,0E0,0E0,0E0,0E0,0E0,0E0,0E0,0E0,0E0,0E0,0E0,0E0,0E0,0E0,0E0,0E0,0E0,0E0,0E0],"parents":[2147483647,0,0,1,1,2,2,3,3,4,4,5,5,6,6,7,7,8,8,9,9,10,10,11,11,12,12,13,13,14,14,15,15,16,16,17,17,18,18,19,19,20,20,21,21,22,22,23,23,24,24,25,25,26,26,27,27,28,28,29,29,30,30,31,31,32,32,33,33,34,34,35,35,37,37,38,38,39,39,40,40,43,43,44,44,45,45,47,47,48,48,49,49,50,50,51,51,52,52,53,53,54,54,55,55,57,57,58,58,59,59,60,60,61,61,62,62],"right_children":[2,4,6,8,10,12,14,16,18,20,22,24,26,28,30,32,34,36,38,40,42,44,46,48,50,52,54,56,58,60,62,64,66,68,70,72,-1,74,76,78,80,-1,-1,82,84,86,-1,88,90,92,94,96,98,100,102,104,-1,106,108,110,112,114,116,-1,-1,-1,-1,-1,-1,-1,-1,-1,-1,-1,-1,-1,-1,-1,-1,-1,-1,-1,-1,-1,-1,-1,-1,-1,-1,-1,-1,-1,-1,-1,-1,-1,-1,-1,-1,-1,-1,-1,-1,-1,-1,-1,-1,-1,-1,-1,-1,-1,-1,-1,-1,-1,-1],"split_conditions":[-7.738865E-1,-2.0860635E-1,-3.238391E-1,-1.3923835E0,-8.8437594E-2,1.8352432E0,-6.057326E-3,1.7835559E0,3.577001E-1,-1.4282843E-1,1.2725488E0,8.951979E-1,8.951979E-1,-4.2329705E-1,-9.7386E-4,9.527027E-1,-1.3872457E0,1.9884631E-1,7.764836E-1,5.0863177E-1,3.2961261E-3,1.0133736E0,8.787453E-2,8.911177E-1,4.5232183E-1,8.911177E-1,3.3215305E-1,-1.7973618E-1,-7.627983E-1,-1.2857139E0,1.758214E-1,-2.674307E-1,1.0125293E0,-2.456058E-1,1.5056218E-1,1.758214E-1,7.803398E-1,5.744381E-1,-4.4152158E-1,-3.3618677E-1,9.669018E-1,5.864432E-1,-2.9002634E-1,-1.6969211E0,-2.8353216E-2,1.2565842E0,3.4231344E-1,7.3199487E-1,2.3282294E0,6.559755E-1,1.0133538E0,-7.627983E-1,-1.040421E0,5.395788E-1,-5.054392E-1,-1.8793604E-1,4.2121476E-1,1.7830777E0,1.4298426E0,-3.8672125E-1,-6.793465E-1,1.6728896E0,-4.2683372E-1,-1.8590742E-1,-3.7448764E-1,2.2787738E-1,-3.077106E-1,4.6240914E-1,5.1135104E-2,-3.3238983E-1,-7.78165E-2,4.1810863E-2,-3.196677E-1,-1.19786374E-1,-3.229298E-1,7.7432865E-1,-2.2734982E-1,-3.9473474E-1,-2.8536E-1,1.2502769E-1,-3.7024906E-1,-2.4272607E-1,-3.8539955E-1,2.979511E-1,-3.6331055E-1,-3.5801286E-1,2.133085E-1,-3.4646022E-1,2.1330367E-1,-3.6195797E-1,-2.4133155E-1,-1.8339631E-1,2.1594632E-1,4.1027528E-1,-3.852019E-1,-4.6397063E-1,2.6245123E-1,7.860629E-2,-4.4359007E-1,3.6616552E-1,-2.1480395E-1,-4.7140643E-1,1.6141212E-1,1.5479015E-1,-2.0567949E-1,-2.4487965E-1,3.1321013E-1,3.7611207E-1,1.2945575E-1,3.529324E-1,-3.4864104E-1,2.8411976E-1,-5.325434E-1,4.6426633E-1,3.777437E-1,-9.054583E-2,1.06680855E-1],"split_indices":[10,12,7,10,12,18,0,4,0,12,11,1,1,19,0,11,15,0,3,8,1,3,18,1,12,1,12,0,15,20,0,6,11,0,3,0,0,3,19,9,9,0,0,16,12,14,0,1,8,10,1,15,6,0,4,0,0,7,5,3,10,18,19,0,0,0,0,0,0,0,0,0,0,0,0,0,0,0,0,0,0,0,0,0,0,0,0,0,0,0,0,0,0,0,0,0,0,0,0,0,0,0,0,0,0,0,0,0,0,0,0,0,0,0,0,0,0],"split_type":[0,0,0,0,0,0,0,0,0,0,0,0,0,0,0,0,0,0,0,0,0,0,0,0,0,0,0,0,0,0,0,0,0,0,0,0,0,0,0,0,0,0,0,0,0,0,0,0,0,0,0,0,0,0,0,0,0,0,0,0,0,0,0,0,0,0,0,0,0,0,0,0,0,0,0,0,0,0,0,0,0,0,0,0,0,0,0,0,0,0,0,0,0,0,0,0,0,0,0,0,0,0,0,0,0,0,0,0,0,0,0,0,0,0,0,0,0],"sum_hessian":[1.2082833E4,1.3412762E3,1.0741557E4,5.5353046E2,7.877458E2,1.4348425E3,9.306714E3,1.6395439E2,3.8957605E2,2.186893E2,5.690565E2,1.1499005E3,2.849421E2,2.8811973E3,6.425517E3,1.5371985E2,1.0234547E1,2.0050485E2,1.8907121E2,2.0759488E2,1.1094431E1,5.4682904E2,2.2227474E1,8.744722E2,2.7542825E2,1.19982704E2,1.649594E2,2.2292524E3,6.5194464E2,2.69778E2,6.155739E3,1.4233086E2,1.1388983E1,3.5331695E0,6.7013774E0,1.8861266E2,1.1892195E1,1.8539854E2,3.6726646E0,1.8056819E2,2.7026676E1,7.7199917E0,3.374439E0,5.364332E2,1.03957815E1,1.9103468E1,3.1240048E0,2.4842184E2,6.2605035E2,1.8392186E2,9.150639E1,6.3420322E1,5.6562378E1,1.3010684E2,3.485255E1,1.9792278E3,2.500247E2,2.3824022E1,6.2812067E2,6.502587E1,2.0475214E2,3.0768845E2,5.8480503E3,1.5299185E1,1.2703168E2,3.5995507E0,7.7894325E0,2.4860651E0,1.0471045E0,5.6722593E0,1.0291183E0,1.52497E2,3.6115658E1,1.0806627E2,7.733228E1,2.6181998E0,1.0544647E0,9.645622E1,8.411198E1,1.9830696E1,7.19598E0,3.7334473E1,4.990988E2,4.045773E0,6.350009E0,1.5386001E1,3.7174678E0,1.655382E2,8.2883644E1,5.5273035E2,7.3320015E1,6.910272E1,1.14819145E2,4.797744E0,8.670865E1,2.2820826E0,6.113824E1,2.554386E1,3.1018518E1,1.2814336E2,1.9634839E0,2.5684075E0,3.2284145E1,1.7772297E3,2.019981E2,1.3726189E1,1.0097833E1,5.9950433E2,2.8616308E1,6.380508E0,5.8645367E1,1.2181115E0,2.0353403E2,2.6941736E2,3.8271103E1,3.2535793E3,2.5944712E3],"tree_param":{"num_deleted":"0","num_feature":"22","num_nodes":"117","size_leaf_vector":"1"}},{"base_weights":[-3.187395E-3,-8.095288E-1,7.6602854E-2,-4.6372426E-1,-1.0012331E0,1.3214777E-1,-7.812545E-1,-9.204626E-1,-1.1365247E-1,2.3606016E-1,-1.0084345E0,1.8031235E-1,-8.162238E-1,-9.324024E-1,4.3318024E-1,6.0740554E-1,-1.0382771E0,1.6513376E0,-2.9810378E-1,-7.5779206E-1,-1.0608758E0,-5.961608E-1,2.3459682E-1,-9.220556E-1,4.9446094E-1,-1.3970544E0,-7.09391E-1,1.0871867E0,-5.8427066E-1,1.5130712E0,-3.3631468E-1,-1.1488264E0,-5.232722E-1,-2.4609198E-1,5.9384155E-1,-4.3096346E-1,1.7206035E0,-9.413801E-1,5.7286596E-1,-1.0770116E0,-4.1711408E-1,-1.1456618E0,-1.5621497E-1,1.5378337E-1,9.153663E-1,-1.0512922E0,-5.893025E-1,-4.4647165E-2,1.0363513E0,-1.4285717E0,9.331876E-2,1.7483219E0,-9.1411614E-1,1.7856454E0,-1.5029582E-1,-1.0325463E0,1.1853398E0,6.139923E-1,-2.554894E-1,-3.5075656E-1,-5.9382763E-2,1.7402461E-1,-3.3999187E-1,-3.3335775E-1,-5.0904047E-2,5.877991E-1,-8.938451E-2,-1.2601191E-1,-3.8330683E-1,-2.694718E-1,-3.4216195E-1,1.5342431E-1,-3.5615352E-1,-3.7763044E-1,1.2748906E-1,-1.2116478E-1,2.2626403E-1,2.2753062E-2,2.4398081E-1,3.04627E-1,6.5740265E-2,-3.591435E-1,-2.0562379E-1,-1.9833007E-1,3.0028507E-1,2.1603994E-1,-1.9196562E-1,-2.0618993E-1,3.629185E-1,-5.662316E-1,-3.8862595E-1,2.4657656E-1,-2.9390153E-1,1.1906258E-2,5.474561E-1,-3.965944E-1,-1.9325787E-1,2.506092E-1,6.178491E-1,-2.4746773E-1,4.6910045E-1,-4.936743E-1,-1.1530332E-1,6.8296313E-1,1.5459579E-1],"categories":[],"categories_nodes":[],"categories_segments":[],"categories_sizes":[],"default_left":[0,0,0,0,0,0,0,0,0,0,0,0,0,0,0,0,0,0,0,0,0,0,0,0,0,0,0,0,0,0,0,0,0,0,0,0,0,0,0,0,0,0,0,0,0,0,0,0,0,0,0,0,0,0,0,0,0,0,0,0,0,0,0,0,0,0,0,0,0,0,0,0,0,0,0,0,0,0,0,0,0,0,0,0,0,0,0,0,0,0,0,0,0,0,0,0,0,0,0,0,0,0,0,0,0],"id":4,"left_children":[1,3,5,7,9,11,13,15,17,-1,19,21,23,25,27,29,31,33,35,37,39,41,43,45,47,49,51,53,55,57,-1,59,61,-1,-1,63,65,67,-1,69,71,73,75,77,79,81,83,85,87,89,91,93,95,97,99,101,103,-1,-1,-1,-1,-1,-1,-1,-1,-1,-1,-1,-1,-1,-1,-1,-1,-1,-1,-1,-1,-1,-1,-1,-1,-1,-1,-1,-1,-1,-1,-1,-1,-1,-1,-1,-1,-1,-1,-1,-1,-1,-1,-1,-1,-1,-1,-1,-1],"loss_changes":[7.278193E2,6.706134E1,4.9060034E2,5.8279953E1,9.220947E0,4.4179358E2,1.1533453E2,2.9124939E1,6.816036E1,0E0,7.769409E0,3.8801736E2,6.530231E1,5.674112E1,4.720423E1,2.0423775E1,7.7870636E0,1.7698086E1,5.1441643E1,5.877781E1,5.1279297E0,1.4525488E2,4.7308096E2,1.7997253E1,1.0440021E1,8.57193E0,1.9203668E2,3.7391853E1,2.346246E1,1.2184748E1,0E0,2.1009216E0,1.9418665E1,0E0,0E0,3.14766E1,6.305294E0,1.8668434E1,0E0,4.916992E0,1.116133E1,4.802545E1,7.58993E1,3.9521094E2,6.3347534E1,1.5750916E1,1.474855E1,9.016159E0,6.1462345E0,8.307892E0,4.447634E0,3.7781754E0,3.7685272E1,5.4444504E0,2.0273241E1,8.468178E0,3.3099327E0,0E0,0E0,0E0,0E0,0E0,0E0,0E0,0E0,0E0,0E0,0E0,0E0,0E0,0E0,0E0,0E0,0E0,0E0,0E0,0E0,0E0,0E0,0E0,0E0,0E0,0E0,0E0,0E0,0E0,0E0,0E0,0E0,0E0,0E0,0E0,0E0,0E0,0E0,0E0,0E0,0E0,0E0,0E0,0E0,0E0,0E0,0E0,0E0],"parents":[2147483647,0,0,1,1,2,2,3,3,4,4,5,5,6,6,7,7,8,8,10,10,11,11,12,12,13,13,14,14,15,15,16,16,17,17,18,18,19,19,20,20,21,21,22,22,23,23,24,24,25,25,26,26,27,27,28,28,29,29,31,31,32,32,35,35,36,36,37,37,39,39,40,40,41,41,42,42,43,43,44,44,45,45,46,46,47,47,48,48,49,49,50,50,51,51,52,52,53,53,54,54,55,55,56,56],"right_children":[2,4,6,8,10,12,14,16,18,-1,20,22,24,26,28,30,32,34,36,38,40,42,44,46,48,50,52,54,56,58,-1,60,62,-1,-1,64,66,68,-1,70,72,74,76,78,80,82,84,86,88,90,92,94,96,98,100,102,104,-1,-1,-1,-1,-1,-1,-1,-1,-1,-1,-1,-1,-1,-1,-1,-1,-1,-1,-1,-1,-1,-1,-1,-1,-1,-1,-1,-1,-1,-1,-1,-1,-1,-1,-1,-1,-1,-1,-1,-1,-1,-1,-1,-1,-1,-1,-1,-1],"split_conditions":[-8.5734916E-1,-2.6869074E-1,1.6636965E0,-4.36927E-1,-1.0122224E0,3.3215305E-1,1.4376987E0,-4.329508E-1,-3.8885948E-1,2.3606016E-1,-4.4152158E-1,-4.36927E-1,2.5743513E0,1.6838264E0,2.1314046E0,6.057422E-1,1.1033013E0,-1.0558625E0,-3.1949782E-1,7.5162166E-1,1.1461744E0,9.656604E-2,1.0922917E0,1.1774602E0,1.1582731E0,3.039323E0,1.8975506E0,-8.420622E-1,1.1582731E0,-4.121882E-2,-3.3631468E-1,9.949468E-1,-1.2364197E0,-2.4609198E-1,5.9384155E-1,-1.3923835E0,5.7103497E-1,-2.0713533E-1,5.7286596E-1,-6.4340687E-1,-6.0551465E-1,2.253442E0,2.4585672E-2,1.3649149E0,2.3216577E0,1.425056E0,4.3265767E0,-9.975777E-1,1.603689E0,-1.7973618E-1,-1.7973618E-1,-1.0558625E0,-1.4282843E-1,1.0236869E-1,4.3265767E0,3.8666728E-1,-4.333803E-1,6.139923E-1,-2.554894E-1,-3.5075656E-1,-5.9382763E-2,1.7402461E-1,-3.3999187E-1,-3.3335775E-1,-5.0904047E-2,5.877991E-1,-8.938451E-2,-1.2601191E-1,-3.8330683E-1,-2.694718E-1,-3.4216195E-1,1.5342431E-1,-3.5615352E-1,-3.7763044E-1,1.2748906E-1,-1.2116478E-1,2.2626403E-1,2.2753062E-2,2.4398081E-1,3.04627E-1,6.5740265E-2,-3.591435E-1,-2.0562379E-1,-1.9833007E-1,3.0028507E-1,2.1603994E-1,-1.9196562E-1,-2.0618993E-1,3.629185E-1,-5.662316E-1,-3.8862595E-1,2.4657656E-1,-2.9390153E-1,1.1906258E-2,5.474561E-1,-3.965944E-1,-1.9325787E-1,2.506092E-1,6.178491E-1,-2.4746773E-1,4.6910045E-1,-4.936743E-1,-1.1530332E-1,6.8296313E-1,1.5459579E-1],"split_indices":[2,12,5,12,6,12,9,19,12,0,19,12,10,5,5,3,4,3,12,3,14,13,7,10,1,10,5,1,1,11,0,11,15,0,0,10,9,5,0,15,8,18,3,10,15,4,8,6,20,0,0,3,12,0,8,20,15,0,0,0,0,0,0,0,0,0,0,0,0,0,0,0,0,0,0,0,0,0,0,0,0,0,0,0,0,0,0,0,0,0,0,0,0,0,0,0,0,0,0,0,0,0,0,0,0],"split_type":[0,0,0,0,0,0,0,0,0,0,0,0,0,0,0,0,0,0,0,0,0,0,0,0,0,0,0,0,0,0,0,0,0,0,0,0,0,0,0,0,0,0,0,0,0,0,0,0,0,0,0,0,0,0,0,0,0,0,0,0,0,0,0,0,0,0,0,0,0,0,0,0,0,0,0,0,0,0,0,0,0,0,0,0,0,0,0,0,0,0,0,0,0,0,0,0,0,0,0,0,0,0,0,0,0],"sum_hessian":[1.1310437E4,1.0176059E3,1.029283E4,3.6415182E2,6.5345404E2,9.667707E3,6.251229E2,1.572971E2,2.0685474E2,2.1869168E0,6.512671E2,9.201219E3,4.664888E2,5.561385E2,6.898446E1,1.0963413E1,1.463337E2,1.8819616E1,1.8803513E2,1.15359116E2,5.35908E2,6.0058606E2,8.600633E3,4.319105E2,3.457829E1,1.7865013E2,3.7748834E2,4.1950554E1,2.7033905E1,7.275729E0,3.6876843E0,1.19460106E2,2.6873585E1,2.0298693E0,1.6789747E1,1.7716187E2,1.0873258E1,1.0853588E2,6.8232355E0,5.2214746E2,1.3760554E1,2.6633023E2,3.342558E2,7.6890938E3,9.115386E2,3.0953296E2,1.22377556E2,1.7793629E1,1.678466E1,1.7499103E2,3.6591134E0,2.8446766E1,3.490416E2,2.653227E1,1.5418284E1,2.1902182E1,5.1317225E0,6.0460153E0,1.2297142E0,1.1673085E2,2.7292533E0,9.585541E0,1.7288044E1,4.8262276E1,1.2889958E2,9.749553E0,1.1237049E0,4.3441948E1,6.509393E1,1.4086989E2,3.8127756E2,6.3906794E0,7.3698745E0,2.4862448E2,1.770577E1,2.6321005E2,7.104574E1,6.877417E3,8.116768E2,7.965992E2,1.14939384E2,2.1968614E2,8.98468E1,1.1765009E2,4.7274594E0,7.6958895E0,1.0097738E1,1.2631066E0,1.5521553E1,3.6394283E1,1.3859674E2,2.3186486E0,1.3404647E0,1.2846403E0,2.7162127E1,1.3745053E2,2.1159106E2,6.8416734E0,1.9690598E1,1.1435948E1,3.9823358E0,1.0465646E1,1.1436537E1,1.0400922E0,4.09163E0],"tree_param":{"num_deleted":"0","num_feature":"22","num_nodes":"105","size_leaf_vector":"1"}},{"base_weights":[-4.562624E-3,-6.1447936E-1,7.115063E-2,-1.8510705E-1,-7.9401636E-1,3.766239E-2,9.9811023E-1,-1.3476925E0,-1.7138513E-2,-6.7974675E-1,-1.1317014E0,7.9683945E-2,-6.294894E-1,-2.5956154E-1,1.0686947E0,-1.0415735E0,-5.0315416E-1,2.3313342E-1,-9.429349E-1,-7.1063733E-1,4.631528E-1,5.154772E-1,-1.1720544E0,3.3350028E-2,6.91109E-1,-8.671885E-1,-8.222755E-2,8.581414E-1,-1.5604091E0,1.1227661E0,4.2884338E-1,-1.2318137E0,2.2410014E-1,-9.477121E-1,4.0441164E-1,-1.1585963E0,9.0757793E-1,-1.0235215E0,-5.8041954E-1,7.4727553E-1,-2.7855164E-1,-9.419119E-1,-1.2991344E0,-5.7807624E-1,9.960209E-2,7.9482645E-1,4.0334564E-2,-5.8870494E-1,-1.1536707E0,4.7579423E-1,-4.4710237E-1,-2.3117213E-1,3.3427218E-1,-2.037328E0,2.2083469E-1,7.1051407E-1,1.1586471E0,8.026988E-1,-6.166729E-1,-3.8935563E-1,-1.7594597E-1,3.0058533E-1,-1.9974317E-1,-3.8139197E-1,3.4866422E-1,2.1596108E-1,-1.1616019E-1,-4.0064278E-1,-1.1563154E-1,-7.6670334E-2,3.7225E-1,-3.4307688E-1,-1.8292886E-1,6.434746E-2,-2.1293356E-1,9.540324E-2,-3.318611E-1,-3.956596E-1,1.3582747E-1,-2.3666474E-1,-7.27833E-3,4.2912615E-3,1.8948773E-1,8.9974344E-2,2.590497E-1,3.1577748E-1,-4.5271613E-2,2.8424015E-2,-2.859224E-1,2.5547126E-1,-3.6241853E-1,2.853233E-1,-1.0099217E-1,-3.438275E-1,-2.8403005E-2,-6.576526E-1,-1.6532819E-1,-4.6269587E-1,2.7757618E-1,3.4968385E-1,-3.9419416E-2,-2.1560422E-1,2.8148985E-1,-3.8577312E-1,1.6523807E-1],"categories":[],"categories_nodes":[],"categories_segments":[],"categories_sizes":[],"default_left":[0,0,0,0,0,0,0,0,0,0,0,0,0,0,0,0,0,0,0,0,0,0,0,0,0,0,0,0,0,0,0,0,0,0,0,0,0,0,0,0,0,0,0,0,0,0,0,0,0,0,0,0,0,0,0,0,0,0,0,0,0,0,0,0,0,0,0,0,0,0,0,0,0,0,0,0,0,0,0,0,0,0,0,0,0,0,0,0,0,0,0,0,0,0,0,0,0,0,0,0,0,0,0,0,0],"id":5,"left_children":[1,3,5,7,9,11,13,15,17,19,21,23,25,27,29,31,-1,33,35,37,-1,39,41,43,45,47,49,51,53,55,57,59,61,63,65,67,69,71,73,-1,-1,75,77,79,81,83,85,87,89,91,93,-1,-1,95,-1,97,99,101,103,-1,-1,-1,-1,-1,-1,-1,-1,-1,-1,-1,-1,-1,-1,-1,-1,-1,-1,-1,-1,-1,-1,-1,-1,-1,-1,-1,-1,-1,-1,-1,-1,-1,-1,-1,-1,-1,-1,-1,-1,-1,-1,-1,-1,-1,-1],"loss_changes":[4.9830057E2,9.1711395E1,2.9794113E2,6.884115E1,3.164209E1,2.598056E2,2.9985565E1,2.7420044E0,7.184839E1,4.4376587E1,1.4620087E1,2.4693695E2,7.1361755E1,2.8365982E1,1.0488373E1,6.466421E0,0E0,4.9764877E1,2.738507E1,2.4753815E1,0E0,1.8677168E1,4.80484E0,3.283498E2,4.141205E1,2.985611E1,3.429486E1,5.2980285E0,1.129705E1,3.4921875E0,1.0784483E1,1.9786835E-1,3.5782027E0,2.279834E1,5.3701553E1,7.627266E0,3.2041698E0,8.320618E0,4.556317E1,0E0,0E0,1.6283295E1,5.09639E0,9.249786E1,3.318529E2,1.7739014E1,1.67026E1,4.893032E1,2.1491806E1,2.6061523E1,2.4951103E1,0E0,0E0,5.5763626E-1,0E0,1.3978373E1,2.5506897E0,4.7642756E0,6.5675306E0,0E0,0E0,0E0,0E0,0E0,0E0,0E0,0E0,0E0,0E0,0E0,0E0,0E0,0E0,0E0,0E0,0E0,0E0,0E0,0E0,0E0,0E0,0E0,0E0,0E0,0E0,0E0,0E0,0E0,0E0,0E0,0E0,0E0,0E0,0E0,0E0,0E0,0E0,0E0,0E0,0E0,0E0,0E0,0E0,0E0,0E0],"parents":[2147483647,0,0,1,1,2,2,3,3,4,4,5,5,6,6,7,7,8,8,9,9,10,10,11,11,12,12,13,13,14,14,15,15,17,17,18,18,19,19,21,21,22,22,23,23,24,24,25,25,26,26,27,27,28,28,29,29,30,30,31,31,32,32,33,33,34,34,35,35,36,36,37,37,38,38,41,41,42,42,43,43,44,44,45,45,46,46,47,47,48,48,49,49,50,50,53,53,55,55,56,56,57,57,58,58],"right_children":[2,4,6,8,10,12,14,16,18,20,22,24,26,28,30,32,-1,34,36,38,-1,40,42,44,46,48,50,52,54,56,58,60,62,64,66,68,70,72,74,-1,-1,76,78,80,82,84,86,88,90,92,94,-1,-1,96,-1,98,100,102,104,-1,-1,-1,-1,-1,-1,-1,-1,-1,-1,-1,-1,-1,-1,-1,-1,-1,-1,-1,-1,-1,-1,-1,-1,-1,-1,-1,-1,-1,-1,-1,-1,-1,-1,-1,-1,-1,-1,-1,-1,-1,-1,-1,-1,-1,-1],"split_conditions":[-7.276158E-1,-9.4565886E-1,2.0899262E0,-1.3626382E0,-3.206748E-1,1.6636965E0,-3.835867E-1,9.727875E-1,2.429924E-1,-4.3224278E-1,-2.5523593E0,1.8352432E0,1.9520117E-1,9.3993276E-1,9.1815546E-2,-8.1800646E-1,-5.0315416E-1,-4.730433E-1,-4.1496876E-1,-4.3823034E-1,4.631528E-1,-4.6651447E-1,4.9752466E-2,-5.264653E-2,2.6638773E-1,5.989722E-1,-9.256187E-1,-5.0724864E-1,1.8785546E0,-4.2613843E-1,5.9316033E-1,3.608601E-1,-3.5280886E-1,-8.112036E-1,1.0908166E0,-4.1843995E-1,8.8800603E-1,1.0376539E-1,-1.8793604E-1,7.4727553E-1,-2.7855164E-1,-4.4152158E-1,2.0899262E0,8.951979E-1,-4.1913664E-1,1.0271077E0,3.3849674E-1,-2.856618E-1,-1.3649033E0,7.3640025E-1,7.268022E-1,-2.3117213E-1,3.3427218E-1,1.2014681E0,2.2083469E-1,-1.0113468E0,3.9952743E0,-7.056837E-1,7.974515E-1,-3.8935563E-1,-1.7594597E-1,3.0058533E-1,-1.9974317E-1,-3.8139197E-1,3.4866422E-1,2.1596108E-1,-1.1616019E-1,-4.0064278E-1,-1.1563154E-1,-7.6670334E-2,3.7225E-1,-3.4307688E-1,-1.8292886E-1,6.434746E-2,-2.1293356E-1,9.540324E-2,-3.318611E-1,-3.956596E-1,1.3582747E-1,-2.3666474E-1,-7.27833E-3,4.2912615E-3,1.8948773E-1,8.9974344E-2,2.590497E-1,3.1577748E-1,-4.5271613E-2,2.8424015E-2,-2.859224E-1,2.5547126E-1,-3.6241853E-1,2.853233E-1,-1.0099217E-1,-3.438275E-1,-2.8403005E-2,-6.576526E-1,-1.6532819E-1,-4.6269587E-1,2.7757618E-1,3.4968385E-1,-3.9419416E-2,-2.1560422E-1,2.8148985E-1,-3.8577312E-1,1.6523807E-1],"split_indices":[18,8,7,5,10,5,12,11,5,10,0,18,9,11,12,18,0,15,17,11,0,9,0,14,12,3,6,10,10,19,11,20,12,9,11,17,11,15,0,0,0,19,7,1,17,10,9,4,4,3,9,0,0,11,0,8,0,0,3,0,0,0,0,0,0,0,0,0,0,0,0,0,0,0,0,0,0,0,0,0,0,0,0,0,0,0,0,0,0,0,0,0,0,0,0,0,0,0,0,0,0,0,0,0,0],"split_type":[0,0,0,0,0,0,0,0,0,0,0,0,0,0,0,0,0,0,0,0,0,0,0,0,0,0,0,0,0,0,0,0,0,0,0,0,0,0,0,0,0,0,0,0,0,0,0,0,0,0,0,0,0,0,0,0,0,0,0,0,0,0,0,0,0,0,0,0,0,0,0,0,0,0,0,0,0,0,0,0,0,0,0,0,0,0,0,0,0,0,0,0,0,0,0,0,0,0,0,0,0,0,0,0,0],"sum_hessian":[1.0788736E4,1.1906007E3,9.598136E3,3.516476E2,8.3895306E2,9.264479E3,3.3365686E2,4.35052E1,3.0814243E2,6.2908813E2,2.0986493E2,8.716347E3,5.481316E2,1.7588482E1,3.160684E2,2.4709461E1,1.879574E1,2.4315747E2,6.498495E1,6.211395E2,7.9485984E0,4.736834E0,2.051281E2,8.1033296E3,6.1301746E2,3.8174075E2,1.6639084E2,9.6432295E0,7.9452515E0,2.9074396E2,2.5324432E1,2.1504004E1,3.2054582E0,3.0227367E1,2.129301E2,5.853688E1,6.4480667E0,1.8052304E2,4.406165E2,1.6941363E0,3.0426977E0,7.596572E1,1.2916238E2,7.914528E2,7.3118765E3,5.285571E2,8.446038E1,1.9512175E2,1.86619E2,6.566382E1,1.0072703E2,1.0373161E0,8.605914E0,6.6724496E0,1.2728019E0,2.4944672E1,2.657993E2,1.8825176E1,6.499255E0,1.859043E1,2.9135728E0,1.6432391E0,1.562219E0,2.6552532E1,3.6748352E0,1.5232071E2,6.0609394E1,4.7046494E1,1.1490388E1,1.4879304E0,4.9601364E0,1.385527E2,4.1970333E1,6.1575687E1,3.7904077E2,8.655175E0,6.731055E1,1.2796829E2,1.1940885E0,5.729418E2,2.1851108E2,6.302449E3,1.00942737E3,6.5058464E1,4.6349863E2,1.2705347E1,7.1755035E1,6.810901E1,1.2701273E2,4.541204E0,1.820778E2,4.1320316E1,2.4343498E1,3.3008022E1,6.771901E1,5.61269E0,1.0597595E0,1.6327925E0,2.331188E1,2.644677E2,1.3315796E0,1.1886847E0,1.7636492E1,4.0666428E0,2.4326124E0],"tree_param":{"num_deleted":"0","num_feature":"22","num_nodes":"105","size_leaf_vector":"1"}},{"base_weights":[-4.5757582E-3,-5.943061E-1,5.3414438E-2,-1.7249715E-1,-8.3985883E-1,1.7588576E0,3.7113693E-2,3.226307E-1,-5.021424E-1,-6.000544E-1,-1.0097399E0,4.1918543E-1,2.6726737E0,2.5233182E-1,-7.582334E-2,1.7132971E0,-1.2901956E-1,-7.214157E-1,-1.5943302E-1,-6.6611075E-1,1.0427266E0,-1.0477738E0,-2.1070383E-1,8.3138156E-1,2.8747785E-1,7.3540034E-3,6.6510874E-1,-1.1821489E0,-2.0850165E-2,1.8564731E0,-2.6384184E-1,-3.0011195E-1,4.697838E-1,-1.9865854E-1,-1.1229942E0,1.1327074E0,-3.6482012E-1,6.0814404E-1,-7.122028E-1,4.66962E-1,-2.1911068E-1,-4.7991705E-1,-1.1064825E0,-5.100403E-1,2.9518306E-1,2.7094576E-1,-4.1962713E-1,1.4398805E0,4.377783E-1,-6.7149603E-1,-1.3208897E0,3.9942914E-1,-7.81231E-2,4.1174996E-1,6.66124E-1,-2.5375465E-1,9.186186E-3,-3.454033E-1,8.5320525E-2,-3.430574E-1,2.9353859E-2,-2.234238E-1,4.5713887E-1,-1.944696E-1,1.3942434E-1,-2.1588889E-1,5.764618E-1,-1.3350633E-1,-2.9092434E-1,4.112917E-1,-2.7759674E-1,-3.3855486E-1,-6.0775857E-2,-3.2630342E-1,1.5295205E-1,1.1613922E-1,-2.2283378E-1,-1.6151372E-1,1.6987559E-1,5.677201E-1,4.1860926E-1,-3.3970615E-1,2.2726434E-1,1.0321598E-1,-2.91131E-1,-3.8125843E-1,-5.827581E-1,-2.505125E-1,-1.4714495E-4],"categories":[],"categories_nodes":[],"categories_segments":[],"categories_sizes":[],"default_left":[0,0,0,0,0,0,0,0,0,0,0,0,0,0,0,0,0,0,0,0,0,0,0,0,0,0,0,0,0,0,0,0,0,0,0,0,0,0,0,0,0,0,0,0,0,0,0,0,0,0,0,0,0,0,0,0,0,0,0,0,0,0,0,0,0,0,0,0,0,0,0,0,0,0,0,0,0,0,0,0,0,0,0,0,0,0,0,0,0],"id":6,"left_children":[1,3,5,7,9,11,13,15,17,19,21,-1,23,25,27,29,31,33,35,37,39,41,43,-1,-1,45,47,49,51,53,-1,55,-1,57,59,61,63,65,67,-1,-1,69,71,73,-1,75,77,79,81,83,85,-1,87,-1,-1,-1,-1,-1,-1,-1,-1,-1,-1,-1,-1,-1,-1,-1,-1,-1,-1,-1,-1,-1,-1,-1,-1,-1,-1,-1,-1,-1,-1,-1,-1,-1,-1,-1,-1],"loss_changes":[3.528126E2,9.552234E1,2.6106058E2,5.58364E1,2.3166168E1,2.5641602E1,2.2619003E2,8.623403E1,1.5302517E1,2.7219536E1,1.0115051E1,0E0,1.4198456E0,3.2385126E2,3.7117676E2,1.4121384E1,3.071671E1,2.5982307E1,2.199852E1,1.4270309E1,1.0100168E1,1.0283661E1,6.475518E0,0E0,0E0,2.2643237E2,2.0945703E2,1.9581512E1,4.5051306E2,2.6246185E0,0E0,1.7276855E1,0E0,2.5844685E1,1.8759918E0,9.504358E0,1.697894E1,1.6665897E1,1.5245789E1,0E0,0E0,2.7782335E1,5.6114197E0,8.811916E0,0E0,1.4679552E2,9.02108E1,2.8016357E0,4.6460345E2,1.969002E1,4.5644226E0,0E0,3.2790082E2,0E0,0E0,0E0,0E0,0E0,0E0,0E0,0E0,0E0,0E0,0E0,0E0,0E0,0E0,0E0,0E0,0E0,0E0,0E0,0E0,0E0,0E0,0E0,0E0,0E0,0E0,0E0,0E0,0E0,0E0,0E0,0E0,0E0,0E0,0E0,0E0],"parents":[2147483647,0,0,1,1,2,2,3,3,4,4,5,5,6,6,7,7,8,8,9,9,10,10,12,12,13,13,14,14,15,15,16,16,17,17,18,18,19,19,20,20,21,21,22,22,25,25,26,26,27,27,28,28,29,29,31,31,33,33,34,34,35,35,36,36,37,37,38,38,41,41,42,42,43,43,45,45,46,46,47,47,48,48,49,49,50,50,52,52],"right_children":[2,4,6,8,10,12,14,16,18,20,22,-1,24,26,28,30,32,34,36,38,40,42,44,-1,-1,46,48,50,52,54,-1,56,-1,58,60,62,64,66,68,-1,-1,70,72,74,-1,76,78,80,82,84,86,-1,88,-1,-1,-1,-1,-1,-1,-1,-1,-1,-1,-1,-1,-1,-1,-1,-1,-1,-1,-1,-1,-1,-1,-1,-1,-1,-1,-1,-1,-1,-1,-1,-1,-1,-1,-1,-1],"split_conditions":[-7.738865E-1,-2.6869074E-1,-6.793465E-1,-4.329508E-1,-8.8437594E-2,1.758214E-1,-6.057326E-3,7.3640025E-1,-4.36927E-1,-1.4282843E-1,1.2725488E0,4.1918543E-1,1.967526E-1,-5.4726726E-1,-9.7386E-4,1.3441776E-1,-3.1949782E-1,-1.2364197E0,-3.8885948E-1,-1.1450768E0,3.2961261E-3,-1.4129946E0,8.787453E-2,8.3138156E-1,2.8747785E-1,2.7021823E-2,-3.6981475E-1,-1.2857139E0,1.758214E-1,-9.7386E-4,-2.6384184E-1,-1.6969211E0,4.697838E-1,-4.8537758E-1,-7.7806935E-2,-1.0558625E0,2.0290616E-1,7.5162166E-1,3.577001E-1,4.66962E-1,-2.1911068E-1,-1.6969211E0,1.0133736E0,1.071758E0,2.9518306E-1,-5.5169344E-1,7.476778E-1,-3.238391E-1,-3.590012E-1,-9.11407E-2,1.8352432E0,3.9942914E-1,1.9884631E-1,4.1174996E-1,6.66124E-1,-2.5375465E-1,9.186186E-3,-3.454033E-1,8.5320525E-2,-3.430574E-1,2.9353859E-2,-2.234238E-1,4.5713887E-1,-1.944696E-1,1.3942434E-1,-2.1588889E-1,5.764618E-1,-1.3350633E-1,-2.9092434E-1,4.112917E-1,-2.7759674E-1,-3.3855486E-1,-6.0775857E-2,-3.2630342E-1,1.5295205E-1,1.1613922E-1,-2.2283378E-1,-1.6151372E-1,1.6987559E-1,5.677201E-1,4.1860926E-1,-3.3970615E-1,2.2726434E-1,1.0321598E-1,-2.91131E-1,-3.8125843E-1,-5.827581E-1,-2.505125E-1,-1.4714495E-4],"split_indices":[10,12,10,19,12,0,0,3,12,12,11,0,20,0,0,11,12,15,12,4,1,5,18,0,0,6,0,20,0,0,0,16,0,9,2,3,20,3,0,0,0,16,3,14,0,0,7,7,0,12,18,0,0,0,0,0,0,0,0,0,0,0,0,0,0,0,0,0,0,0,0,0,0,0,0,0,0,0,0,0,0,0,0,0,0,0,0,0,0],"split_type":[0,0,0,0,0,0,0,0,0,0,0,0,0,0,0,0,0,0,0,0,0,0,0,0,0,0,0,0,0,0,0,0,0,0,0,0,0,0,0,0,0,0,0,0,0,0,0,0,0,0,0,0,0,0,0,0,0,0,0,0,0,0,0,0,0,0,0,0,0,0,0,0,0,0,0,0,0,0,0,0,0,0,0,0,0,0,0,0,0],"sum_hessian":[1.0314658E4,9.226397E2,9.392019E3,3.4010754E2,5.8253217E2,8.790758E1,9.30411E3,1.3594267E2,2.0416489E2,2.4343326E2,3.390989E2,6.4797844E1,2.310973E1,3.2016538E3,6.1024565E3,3.2641994E1,1.03300674E2,1.2383036E2,8.033452E1,2.3459471E2,8.838554E0,3.2339407E2,1.5704815E1,2.1270012E1,1.8397183E0,2.009851E3,1.1918029E3,2.8790543E2,5.8145513E3,3.1202913E1,1.4390829E0,9.457688E1,8.723794E0,5.4447594E1,6.938277E1,1.039871E1,6.9935814E1,7.763791E0,2.2683092E2,6.9474373E0,1.891117E0,3.116142E1,2.9223267E2,1.3016421E1,2.6883936E0,1.2429165E3,7.669344E2,2.6915472E2,9.226482E2,6.2757725E1,2.251477E2,2.3535274E2,5.5791987E3,1.5440765E1,1.5762147E1,3.5100525E1,5.9476353E1,1.7853565E1,3.659403E1,6.829756E1,1.0852069E0,1.6368059E0,8.761905E0,5.2290115E1,1.7645697E1,4.085574E0,3.6782167E0,1.12671455E2,1.14159454E2,5.6412168E0,2.5520203E1,2.8503604E2,7.196624E0,8.267446E0,4.748975E0,1.115666E3,1.2725049E2,6.8489124E2,8.204316E1,2.0388662E1,2.4876605E2,1.5568121E2,7.66967E2,1.4238009E1,4.8519714E1,2.1119543E2,1.3952268E1,5.180873E2,5.0611113E3],"tree_param":{"num_deleted":"0","num_feature":"22","num_nodes":"89","size_leaf_vector":"1"}},{"base_weights":[-2.6248742E-3,-3.289415E-1,8.696252E-2,-2.362243E-1,-9.598986E-1,1.586388E0,2.6658045E-2,-4.428323E-3,-4.9396476E-1,4.647812E-1,-1.0890384E0,1.9745027E0,1.3642653E0,-8.9135444E-1,5.651045E-2,-9.741458E-2,2.2274373E0,-1.1488063E0,-3.584914E-1,-7.3022485E-1,1.1923249E0,-9.3036205E-1,-1.5840874E0,1.5174485E0,2.5334136E0,3.5779825E-1,1.4514623E0,-3.4713593E-1,-1.0623136E0,-3.465463E-1,1.2151537E-1,1.0439785E-1,-6.868324E-1,2.3935816E0,3.9527872E-1,-1.0603281E0,-1.8411332E0,2.3029785E0,-4.5011988E-1,-1.1721132E0,2.8153625E-1,1.8224113E0,-3.359363E-1,-1.0632807E0,6.4437366E-1,-1.4322394E0,-6.347092E-1,4.2668504E-1,7.1239734E-1,2.8367658E0,4.1740996E-1,4.5392764E-1,3.6318243E-1,-1.1524104E0,5.1124024E-1,5.398766E-1,-1.0965816E0,-1.697869E-1,-8.528147E-1,1.5165884E0,2.9765373E-2,-3.214747E-2,4.123434E-1,-4.3156676E-2,-3.160053E-1,5.6078666E-1,8.702007E-1,-1.5050222E-1,-3.349819E-1,-5.938635E-1,-3.8771976E-2,8.639168E-1,4.257618E-1,-9.764048E-2,-3.4033364E-1,-1.0845346E-1,-3.8100085E-1,-1.1111361E-1,6.774811E-1,-3.4564957E-1,-3.647705E-2,-4.3776396E-1,-1.6747117E-1,4.572645E-1,8.833046E-1,-3.8658372E-1,-1.6717383E-1,5.1053685E-1,-2.2307196E-1,-3.7178722E-1,-2.3404926E-1,9.185702E-3,-2.055921E-1,1.1079855E-2,-3.2794195E-1,5.388384E-1,3.967533E-1,-1.5922561E-1,3.2955818E-2],"categories":[],"categories_nodes":[],"categories_segments":[],"categories_sizes":[],"default_left":[0,0,0,0,0,0,0,0,0,0,0,0,0,0,0,0,0,0,0,0,0,0,0,0,0,0,0,0,0,0,0,0,0,0,0,0,0,0,0,0,0,0,0,0,0,0,0,0,0,0,0,0,0,0,0,0,0,0,0,0,0,0,0,0,0,0,0,0,0,0,0,0,0,0,0,0,0,0,0,0,0,0,0,0,0,0,0,0,0,0,0,0,0,0,0,0,0,0,0],"id":7,"left_children":[1,3,5,7,9,11,13,15,17,19,21,23,25,27,29,31,33,35,37,39,41,43,45,47,49,-1,51,53,55,57,59,61,63,65,-1,67,69,71,73,75,-1,77,-1,79,-1,81,-1,-1,-1,83,-1,-1,-1,85,-1,87,89,91,93,95,97,-1,-1,-1,-1,-1,-1,-1,-1,-1,-1,-1,-1,-1,-1,-1,-1,-1,-1,-1,-1,-1,-1,-1,-1,-1,-1,-1,-1,-1,-1,-1,-1,-1,-1,-1,-1,-1,-1],"loss_changes":[2.8957153E2,1.2459302E2,7.026927E2,1.1121655E2,5.0740295E1,2.3209045E1,2.0482664E2,2.0383714E2,7.778624E1,2.1209257E1,1.8214935E1,2.3522705E1,1.1767273E0,2.1532043E1,1.8967896E2,1.1222691E2,2.784668E0,7.2756653E0,1.7950348E2,8.0849495E0,2.3777332E1,8.0936295E1,1.7660065E0,1.6337585E0,1.2232513E1,0E0,1.2573242E-2,9.736542E1,1.0399979E1,8.983167E1,7.978173E2,1.8910371E2,4.773446E1,3.0838013E0,0E0,3.7135468E0,3.4671898E0,8.411163E0,6.0050552E1,1.7044926E-1,0E0,1.2406479E1,0E0,1.5339783E1,0E0,3.4788513E-1,0E0,0E0,0E0,5.8688354E-1,0E0,0E0,0E0,2.6922302E0,0E0,7.8431225E0,6.945709E0,7.714527E1,5.5625732E1,1.8491943E1,2.6265628E2,0E0,0E0,0E0,0E0,0E0,0E0,0E0,0E0,0E0,0E0,0E0,0E0,0E0,0E0,0E0,0E0,0E0,0E0,0E0,0E0,0E0,0E0,0E0,0E0,0E0,0E0,0E0,0E0,0E0,0E0,0E0,0E0,0E0,0E0,0E0,0E0,0E0,0E0],"parents":[2147483647,0,0,1,1,2,2,3,3,4,4,5,5,6,6,7,7,8,8,9,9,10,10,11,11,12,12,13,13,14,14,15,15,16,16,17,17,18,18,19,19,20,20,21,21,22,22,23,23,24,24,26,26,27,27,28,28,29,29,30,30,31,31,32,32,33,33,35,35,36,36,37,37,38,38,39,39,41,41,43,43,45,45,49,49,53,53,55,55,56,56,57,57,58,58,59,59,60,60],"right_children":[2,4,6,8,10,12,14,16,18,20,22,24,26,28,30,32,34,36,38,40,42,44,46,48,50,-1,52,54,56,58,60,62,64,66,-1,68,70,72,74,76,-1,78,-1,80,-1,82,-1,-1,-1,84,-1,-1,-1,86,-1,88,90,92,94,96,98,-1,-1,-1,-1,-1,-1,-1,-1,-1,-1,-1,-1,-1,-1,-1,-1,-1,-1,-1,-1,-1,-1,-1,-1,-1,-1,-1,-1,-1,-1,-1,-1,-1,-1,-1,-1,-1,-1],"split_conditions":[-5.496263E-1,-2.1694008E-1,-4.3943232E-1,3.577001E-1,-1.3872457E0,-3.0961898E-1,-8.1800646E-1,1.9884631E-1,3.9013854E-1,2.2337577E-1,-5.593894E-1,1.758214E-1,1.758214E-1,-3.206748E-1,-4.3224278E-1,-5.593894E-1,-4.2576098E-1,-4.7241405E-2,5.395788E-1,2.4585672E-2,1.5568702E-1,-6.588714E-1,-4.2427786E-2,6.94309E-1,-4.2304552E-1,3.5779825E-1,-4.1714704E-1,-4.3224278E-1,-2.5523593E0,4.9442664E-1,-3.206748E-1,-6.588714E-1,-8.8437594E-2,-6.793465E-1,3.9527872E-1,-1.1797764E0,1.1730111E0,-5.182916E-1,7.7215403E-1,-2.0998083E-1,2.8153625E-1,-4.8537758E-1,-3.359363E-1,1.0968701E0,6.4437366E-1,2.0027883E0,-6.347092E-1,4.2668504E-1,7.1239734E-1,-1.330911E0,4.1740996E-1,4.5392764E-1,3.6318243E-1,5.0863177E-1,5.1124024E-1,-4.9457502E-1,9.0663546E-1,-2.114914E-1,-4.142768E-2,-3.0961898E-1,-3.096393E-1,-3.214747E-2,4.123434E-1,-4.3156676E-2,-3.160053E-1,5.6078666E-1,8.702007E-1,-1.5050222E-1,-3.349819E-1,-5.938635E-1,-3.8771976E-2,8.639168E-1,4.257618E-1,-9.764048E-2,-3.4033364E-1,-1.0845346E-1,-3.8100085E-1,-1.1111361E-1,6.774811E-1,-3.4564957E-1,-3.647705E-2,-4.3776396E-1,-1.6747117E-1,4.572645E-1,8.833046E-1,-3.8658372E-1,-1.6717383E-1,5.1053685E-1,-2.2307196E-1,-3.7178722E-1,-2.3404926E-1,9.185702E-3,-2.055921E-1,1.1079855E-2,-3.2794195E-1,5.388384E-1,3.967533E-1,-1.5922561E-1,3.2955818E-2],"split_indices":[10,18,10,0,15,7,18,0,0,6,10,0,0,10,10,10,19,7,0,3,4,10,14,1,19,0,17,10,0,5,10,10,12,10,0,4,20,15,3,18,0,9,0,3,0,5,0,0,0,8,0,0,0,8,0,9,6,9,0,7,10,0,0,0,0,0,0,0,0,0,0,0,0,0,0,0,0,0,0,0,0,0,0,0,0,0,0,0,0,0,0,0,0,0,0,0,0,0,0],"split_type":[0,0,0,0,0,0,0,0,0,0,0,0,0,0,0,0,0,0,0,0,0,0,0,0,0,0,0,0,0,0,0,0,0,0,0,0,0,0,0,0,0,0,0,0,0,0,0,0,0,0,0,0,0,0,0,0,0,0,0,0,0,0,0,0,0,0,0,0,0,0,0,0,0,0,0,0,0,0,0,0,0,0,0,0,0,0,0,0,0,0,0,0,0,0,0,0,0,0,0],"sum_hessian":[9.90337E3,2.1326504E3,7.77072E3,1.8606134E3,2.72037E2,2.994641E2,7.471256E3,9.801467E2,8.804666E2,2.2393309E1,2.4964369E2,1.0613146E2,1.9333264E2,2.343936E2,7.2368623E3,9.418623E2,3.8284473E1,1.4964473E2,7.308219E2,8.472826E0,1.3920483E1,1.9122903E2,5.8414646E1,6.042963E1,4.5701828E1,7.008408E1,1.2324856E2,5.6754883E1,1.7763872E2,1.004462E3,6.2324004E3,7.022424E2,2.3961987E2,3.0993958E1,7.2905164E0,1.3493216E2,1.4712562E1,2.3519962E1,7.0730194E2,6.934151E0,1.538675E0,1.1105783E1,2.8146994E0,1.8394112E2,7.287921E0,4.8309708E1,1.0104936E1,5.6784737E1,3.6448963E0,3.49377E1,1.0764131E1,9.393123E1,2.931733E1,4.1070057E1,1.5684825E1,3.4108558E0,1.7422786E2,7.4550903E2,2.589529E2,3.8363535E2,5.848765E3,6.0275726E2,9.948511E1,9.712583E1,1.4249405E2,1.7542526E1,1.3451431E1,1.3256221E1,1.2167594E2,1.34673395E1,1.2452226E0,1.2865546E1,1.0654416E1,5.9956525E2,1.07736725E2,1.2528262E0,5.681325E0,1.866371E0,9.239412E0,1.6787244E2,1.6068684E1,4.6213863E1,2.0958462E0,3.795767E0,3.1141932E1,3.2473446E1,8.596611E0,1.6191146E0,1.791741E0,1.18062996E2,5.616486E1,5.374994E2,2.0800966E2,5.5249775E1,2.0370312E2,1.5382251E2,2.2981284E2,7.3049945E2,5.1182656E3],"tree_param":{"num_deleted":"0","num_feature":"22","num_nodes":"99","size_leaf_vector":"1"}},{"base_weights":[-9.183957E-4,-3.0140647E-1,6.399846E-2,-1.3114727E-1,-7.330371E-1,1.4819419E0,3.106955E-2,-5.234563E-1,1.5753162E-1,-5.156891E-1,-1.0645704E0,1.7435904E0,3.9426425E-1,-7.716473E-1,7.194834E-2,-6.014355E-1,5.0816774E-1,-5.4428786E-1,3.114513E-1,-6.047534E-1,2.5840083E-1,-1.1409783E0,-1.8660878E-1,1.5923023E0,2.704821E0,-1.113035E0,-3.6265138E-1,1.5002751E0,3.126563E-2,-3.7852955E-1,-1.0037253E0,-2.0306486E-1,-9.730041E-1,-3.579604E-1,4.7558296E-1,6.17994E-2,-7.073212E-1,6.7922813E-3,4.0685257E-1,7.2698647E-1,-1.1693476E0,8.5817575E-1,-7.7972543E-1,4.4668356E-1,6.864369E-1,2.0968318E-1,8.9545983E-1,-8.3232594E-1,-1.4048492E0,-5.951391E-1,7.465482E-1,1.7589897E0,3.881798E-1,-1.0176655E0,5.100827E-2,-1.471539E-3,-2.3859209E-1,-2.5937974E-1,-4.8625576E-1,2.056848E-1,-2.1288837E-1,-3.326757E-1,-1.4380544E-1,-1.4069302E-2,-4.3990913E-1,-2.1648453E-1,1.7777866E-1,1.9361307E-1,-2.3179375E-1,-1.1781828E-1,-2.8007376E-1,3.815747E-1,-8.051352E-2,-1.3401236E-1,4.714615E-1,-4.0314552E-1,-2.3625751E-1,4.6052016E-2,2.899151E-1,-2.8259E-1,1.2054982E-1,-3.2154334E-1,1.5814982E-1,-4.5775947E-1,-8.73746E-2,-5.4889405E-1,-1.2889467E-1,3.9223757E-1,-3.9164498E-1,4.4767287E-1,6.21957E-1,-1.553571E-1,-4.7789657E-1,-1.3923748E-2,8.2356945E-2],"categories":[],"categories_nodes":[],"categories_segments":[],"categories_sizes":[],"default_left":[0,0,0,0,0,0,0,0,0,0,0,0,0,0,0,0,0,0,0,0,0,0,0,0,0,0,0,0,0,0,0,0,0,0,0,0,0,0,0,0,0,0,0,0,0,0,0,0,0,0,0,0,0,0,0,0,0,0,0,0,0,0,0,0,0,0,0,0,0,0,0,0,0,0,0,0,0,0,0,0,0,0,0,0,0,0,0,0,0,0,0,0,0,0,0],"id":8,"left_children":[1,3,5,7,9,11,13,15,17,19,21,23,-1,25,27,29,-1,31,33,35,37,39,41,43,45,47,49,51,53,55,57,59,61,63,65,67,69,71,-1,73,75,77,79,-1,-1,-1,-1,81,83,85,87,89,-1,91,93,-1,-1,-1,-1,-1,-1,-1,-1,-1,-1,-1,-1,-1,-1,-1,-1,-1,-1,-1,-1,-1,-1,-1,-1,-1,-1,-1,-1,-1,-1,-1,-1,-1,-1,-1,-1,-1,-1,-1,-1],"loss_changes":[1.8726643E2,1.2524136E2,3.6856216E2,1.3873535E2,3.4199707E1,5.570801E0,2.5326288E2,9.079631E1,7.6441864E1,2.0371635E1,1.2533997E1,5.4250946E0,0E0,5.1817398E1,4.2666577E2,4.4664703E1,0E0,1.843407E1,6.386357E1,1.8041931E1,8.541118E0,1.0103058E1,1.0837121E1,9.2637634E-1,2.2218513E0,1.5489624E1,4.470542E1,8.579437E0,1.4793387E2,5.057819E1,1.392363E1,3.2980804E1,3.237896E0,3.948462E1,6.570646E1,1.804257E1,1.5878761E1,9.458358E0,0E0,3.9025323E0,1.0425064E1,3.4102154E-1,2.4853778E0,0E0,0E0,0E0,0E0,3.511223E1,1.279715E1,2.8316833E1,3.6449947E1,4.2349243E0,0E0,3.7123642E1,1.5265753E2,0E0,0E0,0E0,0E0,0E0,0E0,0E0,0E0,0E0,0E0,0E0,0E0,0E0,0E0,0E0,0E0,0E0,0E0,0E0,0E0,0E0,0E0,0E0,0E0,0E0,0E0,0E0,0E0,0E0,0E0,0E0,0E0,0E0,0E0,0E0,0E0,0E0,0E0,0E0,0E0],"parents":[2147483647,0,0,1,1,2,2,3,3,4,4,5,5,6,6,7,7,8,8,9,9,10,10,11,11,13,13,14,14,15,15,17,17,18,18,19,19,20,20,21,21,22,22,23,23,24,24,25,25,26,26,27,27,28,28,29,29,30,30,31,31,32,32,33,33,34,34,35,35,36,36,37,37,39,39,40,40,41,41,42,42,47,47,48,48,49,49,50,50,51,51,53,53,54,54],"right_children":[2,4,6,8,10,12,14,16,18,20,22,24,-1,26,28,30,-1,32,34,36,38,40,42,44,46,48,50,52,54,56,58,60,62,64,66,68,70,72,-1,74,76,78,80,-1,-1,-1,-1,82,84,86,88,90,-1,92,94,-1,-1,-1,-1,-1,-1,-1,-1,-1,-1,-1,-1,-1,-1,-1,-1,-1,-1,-1,-1,-1,-1,-1,-1,-1,-1,-1,-1,-1,-1,-1,-1,-1,-1,-1,-1,-1,-1,-1,-1],"split_conditions":[-6.512816E-1,2.6057264E-1,-5.714908E-1,-4.1285314E-2,-6.485221E-1,-3.0961898E-1,-5.615219E-1,3.754571E-2,-9.922747E-1,-7.209407E-1,-4.1283715E-1,-3.805107E-1,3.9426425E-1,-4.2683372E-1,-4.828531E-1,-5.593894E-1,5.0816774E-1,-7.9240674E-1,-1.0733061E0,-7.335722E-1,-6.8981093E-1,-1.3649033E0,-9.6574247E-1,5.864519E-1,-5.1175696E-1,-2.856618E-1,1.071758E0,-3.0961898E-1,-1.3345048E0,1.758214E-1,7.974515E-1,2.2285299E-1,1.7515346E0,5.0828767E-1,-4.1792864E-1,9.621346E-1,-7.916601E-1,-6.9275963E-1,4.0685257E-1,1.1959887E0,9.922224E-1,-1.2983482E-1,2.0027883E0,4.4668356E-1,6.864369E-1,2.0968318E-1,8.9545983E-1,1.0769242E0,2.2903405E-1,-1.0733061E0,-2.0860635E-1,1.7048046E-1,3.881798E-1,2.8791228E-1,5.1577155E-2,-1.471539E-3,-2.3859209E-1,-2.5937974E-1,-4.8625576E-1,2.056848E-1,-2.1288837E-1,-3.326757E-1,-1.4380544E-1,-1.4069302E-2,-4.3990913E-1,-2.1648453E-1,1.7777866E-1,1.9361307E-1,-2.3179375E-1,-1.1781828E-1,-2.8007376E-1,3.815747E-1,-8.051352E-2,-1.3401236E-1,4.714615E-1,-4.0314552E-1,-2.3625751E-1,4.6052016E-2,2.899151E-1,-2.8259E-1,1.2054982E-1,-3.2154334E-1,1.5814982E-1,-4.5775947E-1,-8.73746E-2,-5.4889405E-1,-1.2889467E-1,3.9223757E-1,-3.9164498E-1,4.4767287E-1,6.21957E-1,-1.553571E-1,-4.7789657E-1,-1.3923748E-2,8.2356945E-2],"split_indices":[18,5,18,15,2,7,18,5,18,2,17,10,0,19,18,10,0,9,5,0,2,4,8,0,9,4,14,7,9,0,3,7,20,4,20,5,15,2,0,5,20,3,5,0,0,0,0,11,9,5,12,0,0,4,7,0,0,0,0,0,0,0,0,0,0,0,0,0,0,0,0,0,0,0,0,0,0,0,0,0,0,0,0,0,0,0,0,0,0,0,0,0,0,0,0],"split_type":[0,0,0,0,0,0,0,0,0,0,0,0,0,0,0,0,0,0,0,0,0,0,0,0,0,0,0,0,0,0,0,0,0,0,0,0,0,0,0,0,0,0,0,0,0,0,0,0,0,0,0,0,0,0,0,0,0,0,0,0,0,0,0,0,0,0,0,0,0,0,0,0,0,0,0,0,0,0,0,0,0,0,0,0,0,0,0,0,0,0,0,0,0,0,0],"sum_hessian":[9.5981E3,1.7045253E3,7.8935737E3,1.2232938E3,4.812315E2,1.7815337E2,7.7154204E3,5.1822406E2,7.050697E2,2.9221524E2,1.8901627E2,6.5922165E1,1.1223119E2,3.730061E2,7.3424146E3,5.0132245E2,1.6901636E1,1.2636296E2,5.787067E2,2.6225928E2,2.9955967E1,1.7360782E2,1.5408459E1,5.9252884E1,6.669283E0,2.023684E2,1.7063773E2,2.0234703E2,7.1400674E3,3.2383096E2,1.7749149E2,7.118177E1,5.518119E1,1.13719666E2,4.649871E2,3.5027195E1,2.2723207E2,2.518889E1,4.767076E0,2.2287798E0,1.7137903E2,5.4178815E0,9.990578E0,5.4323517E1,4.9293694E0,1.2453123E0,5.4239707E0,1.0511032E2,9.7258064E1,1.4145274E2,2.918498E1,8.644134E1,1.159057E2,1.3097151E2,7.0090957E3,1.7128896E2,1.5254199E2,1.467981E2,3.0693394E1,2.5715218E1,4.5466557E1,4.2291058E1,1.2890132E1,8.961295E1,2.4106707E1,4.0940723E1,4.2404636E2,2.0745325E1,1.4281869E1,9.620394E1,1.3102814E2,3.8528354E0,2.1336056E1,1.1297752E0,1.0990047E0,1.1590001E2,5.5479023E1,1.0431739E0,4.3747077E0,8.962677E0,1.0279E0,8.954745E1,1.5562875E1,8.7391014E1,9.86705E0,1.5532084E1,1.25920654E2,2.3204906E1,5.9800735E0,4.986052E1,3.6580814E1,7.110209E1,5.986942E1,4.8820205E3,2.1270754E3],"tree_param":{"num_deleted":"0","num_feature":"22","num_nodes":"95","size_leaf_vector":"1"}},{"base_weights":[-5.5216765E-4,2.7033035E-2,-6.4913434E-1,1.9739848E-1,-1.16487935E-1,-7.501085E-1,3.171612E-1,9.256786E-2,1.9694631E0,-1.0469774E0,-7.991275E-3,-1.0285577E0,-5.376727E-1,-8.653715E-2,8.695916E-1,2.067837E-1,-6.2166536E-1,2.1938088E0,3.7557486E-1,-1.0738444E0,-3.434781E-1,1.863481E0,-7.428787E-2,-1.1064928E0,-7.9183036E-1,-2.3597395E-1,-1.0207278E0,-9.1882503E-1,3.0390537E-1,-1.3474527E-1,1.0180792E0,1.376032E-1,1.2979699E0,-8.394072E-1,3.6627653E-1,2.2915165E0,4.307913E-1,-1.1103498E0,-5.6282395E-1,-1.0573606E0,2.2019617E-1,2.5009906E0,3.9648652E-1,-1.5184897E-1,5.4016006E-1,-3.3692092E-1,-4.3890414E-1,-3.8853225E-1,-3.9876944E-1,-7.0754695E-1,5.615619E-1,-4.1395164E-1,-1.1427418E0,-3.8784158E-1,1.8891148E-1,5.6931716E-1,-3.253702E-1,-1.12707384E-1,3.5314265E-1,7.279816E-2,-2.6568875E-1,5.860846E-1,3.6421502E-1,2.5200956E-2,-2.8178358E-1,-3.0878353E-1,2.0519508E-1,5.498255E-1,7.367901E-1,-3.36865E-1,1.05687445E-2,-3.2240197E-1,8.608578E-2,-3.9630508E-1,9.16011E-2,-2.7530172E-1,2.8554788E-1,5.659623E-1,8.2690805E-1,-1.8595138E-1,2.0013915E-2,5.182352E-1,6.263891E-2,1.6763619E-1,-2.880739E-1,6.6275243E-3,-3.593956E-1,2.5210902E-2,-2.982196E-1,3.070321E-1,-2.7273798E-1,2.2501227E-1,-3.136231E-1,-3.467251E-1,-9.897158E-2,-2.008204E-1,2.2623749E-1],"categories":[],"categories_nodes":[],"categories_segments":[],"categories_sizes":[],"default_left":[0,0,0,0,0,0,0,0,0,0,0,0,0,0,0,0,0,0,0,0,0,0,0,0,0,0,0,0,0,0,0,0,0,0,0,0,0,0,0,0,0,0,0,0,0,0,0,0,0,0,0,0,0,0,0,0,0,0,0,0,0,0,0,0,0,0,0,0,0,0,0,0,0,0,0,0,0,0,0,0,0,0,0,0,0,0,0,0,0,0,0,0,0,0,0,0,0],"id":9,"left_children":[1,3,5,7,9,11,13,15,17,19,21,23,25,27,29,31,33,35,-1,37,39,41,43,45,47,49,51,53,55,-1,57,59,61,63,65,67,-1,69,71,73,75,77,-1,79,81,-1,83,-1,85,87,89,91,93,-1,-1,95,-1,-1,-1,-1,-1,-1,-1,-1,-1,-1,-1,-1,-1,-1,-1,-1,-1,-1,-1,-1,-1,-1,-1,-1,-1,-1,-1,-1,-1,-1,-1,-1,-1,-1,-1,-1,-1,-1,-1,-1,-1],"loss_changes":[1.6662926E2,2.184562E2,3.7310425E1,7.5869543E2,4.895618E2,1.9813477E1,8.248822E0,3.148513E2,3.3975586E1,9.202515E0,5.39108E2,1.8526306E0,2.8527412E1,7.456063E0,3.5051718E0,2.509618E2,1.1477945E2,9.479065E0,0E0,8.465576E0,8.320307E0,4.8047424E1,2.0006807E2,7.106476E-1,7.425886E0,4.6585438E1,5.1232224E0,5.0421243E0,6.43429E0,0E0,3.6116142E0,3.36644E2,8.535004E0,4.0319336E1,4.3622383E1,6.8969727E0,0E0,6.5549316E0,1.5322002E1,3.6512642E0,1.0911975E1,5.3414307E0,0E0,3.812346E2,1.847653E2,0E0,2.7610013E0,0E0,8.095093E0,1.7687653E1,3.2306847E1,1.1238293E1,2.7815247E-1,0E0,0E0,3.6885014E0,0E0,0E0,0E0,0E0,0E0,0E0,0E0,0E0,0E0,0E0,0E0,0E0,0E0,0E0,0E0,0E0,0E0,0E0,0E0,0E0,0E0,0E0,0E0,0E0,0E0,0E0,0E0,0E0,0E0,0E0,0E0,0E0,0E0,0E0,0E0,0E0,0E0,0E0,0E0,0E0,0E0],"parents":[2147483647,0,0,1,1,2,2,3,3,4,4,5,5,6,6,7,7,8,8,9,9,10,10,11,11,12,12,13,13,14,14,15,15,16,16,17,17,19,19,20,20,21,21,22,22,23,23,24,24,25,25,26,26,27,27,28,28,30,30,31,31,32,32,33,33,34,34,35,35,37,37,38,38,39,39,40,40,41,41,43,43,44,44,46,46,48,48,49,49,50,50,51,51,52,52,55,55],"right_children":[2,4,6,8,10,12,14,16,18,20,22,24,26,28,30,32,34,36,-1,38,40,42,44,46,48,50,52,54,56,-1,58,60,62,64,66,68,-1,70,72,74,76,78,-1,80,82,-1,84,-1,86,88,90,92,94,-1,-1,96,-1,-1,-1,-1,-1,-1,-1,-1,-1,-1,-1,-1,-1,-1,-1,-1,-1,-1,-1,-1,-1,-1,-1,-1,-1,-1,-1,-1,-1,-1,-1,-1,-1,-1,-1,-1,-1,-1,-1,-1,-1],"split_conditions":[3.3215305E-1,3.577001E-1,2.48484E0,1.9884631E-1,3.9013854E-1,6.627989E-1,1.1582731E0,1.758214E-1,-3.0961898E-1,-4.1171694E-1,5.395788E-1,1.2973979E0,5.184146E-1,1.0376539E-1,1.603689E0,-9.7386E-4,1.3867934E0,1.6728896E0,3.7557486E-1,1.6838264E0,-1.6955861E-1,-4.3273163E-1,9.370075E-1,1.707916E0,-4.834017E-1,8.951979E-1,-2.1555185E-1,7.527437E-1,2.595164E-1,-1.3474527E-1,-1.5926484E0,-6.057326E-3,-7.738865E-1,-1.2364197E0,-1.0529951E0,-4.3943232E-1,4.307913E-1,-4.1826257E-1,2.1457572E-1,3.6727986E-1,-1.8772338E-1,-3.8041562E-1,3.9648652E-1,-4.2707938E-1,1.2670937E0,-3.3692092E-1,4.0425432E-1,-3.8853225E-1,-7.7553475E-1,1.603689E0,-7.335722E-1,8.389087E0,4.3265767E0,-3.8784158E-1,1.8891148E-1,1.499328E0,-3.253702E-1,-1.12707384E-1,3.5314265E-1,7.279816E-2,-2.6568875E-1,5.860846E-1,3.6421502E-1,2.5200956E-2,-2.8178358E-1,-3.0878353E-1,2.0519508E-1,5.498255E-1,7.367901E-1,-3.36865E-1,1.05687445E-2,-3.2240197E-1,8.608578E-2,-3.9630508E-1,9.16011E-2,-2.7530172E-1,2.8554788E-1,5.659623E-1,8.2690805E-1,-1.8595138E-1,2.0013915E-2,5.182352E-1,6.263891E-2,1.6763619E-1,-2.880739E-1,6.6275243E-3,-3.593956E-1,2.5210902E-2,-2.982196E-1,3.070321E-1,-2.7273798E-1,2.2501227E-1,-3.136231E-1,-3.467251E-1,-9.897158E-2,-2.008204E-1,2.2623749E-1],"split_indices":[12,0,10,0,0,4,1,0,7,17,0,10,12,15,20,0,2,18,0,5,15,19,0,2,4,1,15,12,0,0,0,0,10,15,20,10,0,19,9,14,12,2,0,17,0,0,12,0,0,20,0,12,8,0,0,18,0,0,0,0,0,0,0,0,0,0,0,0,0,0,0,0,0,0,0,0,0,0,0,0,0,0,0,0,0,0,0,0,0,0,0,0,0,0,0,0,0],"split_type":[0,0,0,0,0,0,0,0,0,0,0,0,0,0,0,0,0,0,0,0,0,0,0,0,0,0,0,0,0,0,0,0,0,0,0,0,0,0,0,0,0,0,0,0,0,0,0,0,0,0,0,0,0,0,0,0,0,0,0,0,0,0,0,0,0,0,0,0,0,0,0,0,0,0,0,0,0,0,0,0,0,0,0,0,0,0,0,0,0,0,0,0,0,0,0,0,0],"sum_hessian":[9.311459E3,8.932504E3,3.7895486E2,4.0841133E3,4.8483906E3,3.433046E2,3.5650276E1,3.8569958E3,2.2711737E2,5.053924E2,4.342998E3,1.469062E2,1.963984E2,2.1085224E1,1.4565053E1,3.3258557E3,5.311402E2,1.7145386E2,5.5663513E1,4.8629413E2,1.9098246E1,1.4765887E2,4.1953394E3,1.07756584E2,3.914961E1,1.2180924E2,7.458916E1,6.3008046E0,1.478442E1,1.2691036E0,1.329595E1,3.128629E3,1.9722694E2,4.3534152E2,9.5798676E1,1.500803E2,2.1373554E1,4.5277667E2,3.3517452E1,8.039958E0,1.1058288E1,6.618049E1,8.1478386E1,3.7257896E3,4.695496E2,1.0447998E2,3.276606E0,1.6161465E1,2.2988146E1,7.661851E1,4.5190735E1,1.3223136E1,6.1366024E1,5.2081437E0,1.0926608E0,1.290714E1,1.8772799E0,1.2224516E0,1.2073498E1,2.8380076E3,2.906212E2,1.985164E1,1.773753E2,4.2504467E1,3.9283704E2,1.7349562E1,7.844911E1,4.280699E1,1.0727331E2,4.4789615E2,4.8805413E0,2.0752728E1,1.2764725E1,6.7621894E0,1.2777689E0,4.228157E0,6.830131E0,2.1892355E1,4.4288136E1,1.1855126E3,2.5402769E3,1.0153437E2,3.6801523E2,1.0999017E0,2.1767044E0,1.5695415E1,7.2927313E0,2.055009E1,5.6068417E1,3.4621693E1,1.0569042E1,4.58452E0,8.638617E0,5.9984173E1,1.38185E0,1.335238E0,1.1571901E1],"tree_param":{"num_deleted":"0","num_feature":"22","num_nodes":"97","size_leaf_vector":"1"}},{"base_weights":[-2.8110493E-3,-4.563536E-1,2.8900562E-2,-8.8595086E-1,-1.671432E-1,1.3505523E0,9.715551E-3,-1.0302621E0,-1.0578261E-1,-3.136126E-1,8.244567E-1,-4.9677774E-1,1.4714692E0,-1.9935338E-2,5.988814E-1,-1.070321E0,1.2747431E-1,-1.3623675E0,6.76885E-1,5.423845E-2,-7.4632096E-1,-7.014356E-1,1.224497E0,-2.9563552E-1,2.5387156E-1,3.7504628E-1,1.6330106E0,-4.6843342E-2,5.8318347E-1,-4.5518643E-1,6.7532134E-1,-1.1017684E0,2.528469E-1,2.8285098E-1,-1.1279272E0,-1.5109354E0,-8.575846E-2,-8.7031347E-1,1.3764138E0,-7.6873577E-1,2.7431226E-1,-1.2574042E0,-2.4533744E-1,-9.906183E-1,2.8072533E-1,1.3787457E0,-2.8818598E-1,5.9827346E-1,4.1448763E-1,1.7198756E-2,-2.781842E-1,7.020257E-1,-9.384209E-2,-1.0772896E0,1.3292079E-1,8.935037E-1,2.2872496E-1,-2.4385586E-1,-3.5124108E-1,-2.767885E-1,3.212595E-1,-8.28536E-2,-4.3732145E-1,-4.896992E-1,-1.6725793E-1,8.1758104E-2,-3.2358515E-1,4.637183E-1,5.149264E-2,-5.719099E-2,-3.5526508E-1,1.8375883E-1,-2.3287018E-1,-4.2693654E-1,1.3004188E-1,-3.6870027E-1,1.2926451E-2,6.365562E-2,-3.5093197E-1,-1.6447154E-1,4.3754783E-1,-9.697158E-3,3.9129308E-1,-5.2454066E-2,-2.2704536E-1,2.271362E-1,-1.10534385E-1,-1.0385219E-1,1.812045E-1,-1.18841074E-1,-4.2015797E-1,1.897192E-1,-2.710894E-1,1.7471349E-1,2.982465E-1,2.0261644E-1,-1.6888127E-1],"categories":[],"categories_nodes":[],"categories_segments":[],"categories_sizes":[],"default_left":[0,0,0,0,0,0,0,0,0,0,0,0,0,0,0,0,0,0,0,0,0,0,0,0,0,0,0,0,0,0,0,0,0,0,0,0,0,0,0,0,0,0,0,0,0,0,0,0,0,0,0,0,0,0,0,0,0,0,0,0,0,0,0,0,0,0,0,0,0,0,0,0,0,0,0,0,0,0,0,0,0,0,0,0,0,0,0,0,0,0,0,0,0,0,0,0,0],"id":10,"left_children":[1,3,5,7,9,11,13,15,17,19,21,23,25,27,29,31,33,35,37,39,41,43,45,-1,-1,-1,47,49,51,53,55,57,59,-1,61,63,-1,65,67,69,71,73,75,77,-1,79,-1,-1,-1,81,83,85,87,89,91,93,95,-1,-1,-1,-1,-1,-1,-1,-1,-1,-1,-1,-1,-1,-1,-1,-1,-1,-1,-1,-1,-1,-1,-1,-1,-1,-1,-1,-1,-1,-1,-1,-1,-1,-1,-1,-1,-1,-1,-1,-1],"loss_changes":[1.281812E2,7.221419E1,2.1119968E2,2.624797E1,5.0993137E1,2.7352478E1,1.4346533E2,9.293472E0,3.795825E1,4.8601532E1,2.8469803E1,6.1297445E0,1.9665985E0,1.2692367E2,3.2012985E1,8.223953E0,8.737322E0,1.9327183E0,2.7035688E1,3.0245726E1,3.5602234E1,5.676204E0,1.3526215E1,0E0,0E0,0E0,2.833191E0,1.1091722E2,2.6941597E1,1.0096223E1,3.5584915E1,2.7721558E0,6.032553E0,0E0,5.5454254E-1,5.6661797E-1,0E0,2.2092562E0,3.1671906E0,8.241463E0,4.7227757E1,2.0002739E1,2.04997E1,2.189993E0,0E0,6.0590363E0,0E0,0E0,0E0,3.7382446E2,8.014973E1,1.7044403E1,9.147615E0,2.3800802E0,8.272416E0,7.137253E0,4.348208E1,0E0,0E0,0E0,0E0,0E0,0E0,0E0,0E0,0E0,0E0,0E0,0E0,0E0,0E0,0E0,0E0,0E0,0E0,0E0,0E0,0E0,0E0,0E0,0E0,0E0,0E0,0E0,0E0,0E0,0E0,0E0,0E0,0E0,0E0,0E0,0E0,0E0,0E0,0E0,0E0],"parents":[2147483647,0,0,1,1,2,2,3,3,4,4,5,5,6,6,7,7,8,8,9,9,10,10,11,11,12,12,13,13,14,14,15,15,16,16,17,17,18,18,19,19,20,20,21,21,22,22,26,26,27,27,28,28,29,29,30,30,31,31,32,32,34,34,35,35,37,37,38,38,39,39,40,40,41,41,42,42,43,43,45,45,49,49,50,50,51,51,52,52,53,53,54,54,55,55,56,56],"right_children":[2,4,6,8,10,12,14,16,18,20,22,24,26,28,30,32,34,36,38,40,42,44,46,-1,-1,-1,48,50,52,54,56,58,60,-1,62,64,-1,66,68,70,72,74,76,78,-1,80,-1,-1,-1,82,84,86,88,90,92,94,96,-1,-1,-1,-1,-1,-1,-1,-1,-1,-1,-1,-1,-1,-1,-1,-1,-1,-1,-1,-1,-1,-1,-1,-1,-1,-1,-1,-1,-1,-1,-1,-1,-1,-1,-1,-1,-1,-1,-1,-1],"split_conditions":[-4.36927E-1,2.2754227E-1,-3.8885948E-1,8.951979E-1,1.3180388E0,-3.238391E-1,1.4818331E0,2.4087615E0,-4.1285314E-2,-4.3943232E-1,-1.4838054E0,9.0510494E-1,1.7048046E-1,2.090299E0,-3.835867E-1,8.659166E-1,8.911177E-1,-1.6955861E-1,9.1029155E-1,-6.641151E-1,3.754571E-2,1.5660896E0,1.4423683E0,-2.9563552E-1,2.5387156E-1,3.7504628E-1,-1.1340421E0,9.1815546E-2,2.8408557E-1,-1.2574801E0,3.1731162E-2,-4.4098932E-1,5.997238E-1,2.8285098E-1,2.8835773E0,1.7835559E0,-8.575846E-2,-3.1696403E-1,-6.7399263E-1,3.2277447E-1,4.9442664E-1,2.0290616E-1,-1.7517105E-1,-1.8248445E0,2.8072533E-1,-1.30801E-1,-2.8818598E-1,5.9827346E-1,4.1448763E-1,3.2337777E-2,6.5056837E-1,1.1033013E0,3.2607656E0,2.3461776E-2,-2.933181E-1,-4.2233703E-1,-1.30801E-1,-2.4385586E-1,-3.5124108E-1,-2.767885E-1,3.212595E-1,-8.28536E-2,-4.3732145E-1,-4.896992E-1,-1.6725793E-1,8.1758104E-2,-3.2358515E-1,4.637183E-1,5.149264E-2,-5.719099E-2,-3.5526508E-1,1.8375883E-1,-2.3287018E-1,-4.2693654E-1,1.3004188E-1,-3.6870027E-1,1.2926451E-2,6.365562E-2,-3.5093197E-1,-1.6447154E-1,4.3754783E-1,-9.697158E-3,3.9129308E-1,-5.2454066E-2,-2.2704536E-1,2.271362E-1,-1.10534385E-1,-1.0385219E-1,1.812045E-1,-1.18841074E-1,-4.2015797E-1,1.897192E-1,-2.710894E-1,1.7471349E-1,2.982465E-1,2.0261644E-1,-1.6888127E-1],"split_indices":[12,13,12,1,2,7,7,10,15,10,15,15,0,18,12,11,1,15,10,5,5,4,5,0,0,0,15,12,12,8,12,5,1,0,10,4,0,4,12,0,5,20,6,0,0,4,0,0,0,12,6,4,10,4,9,19,4,0,0,0,0,0,0,0,0,0,0,0,0,0,0,0,0,0,0,0,0,0,0,0,0,0,0,0,0,0,0,0,0,0,0,0,0,0,0,0,0],"split_type":[0,0,0,0,0,0,0,0,0,0,0,0,0,0,0,0,0,0,0,0,0,0,0,0,0,0,0,0,0,0,0,0,0,0,0,0,0,0,0,0,0,0,0,0,0,0,0,0,0,0,0,0,0,0,0,0,0,0,0,0,0,0,0,0,0,0,0,0,0,0,0,0,0,0,0,0,0,0,0,0,0,0,0,0,0,0,0,0,0,0,0,0,0,0,0,0,0],"sum_hessian":[8.910347E3,5.8142065E2,8.328926E3,2.331029E2,3.4831772E2,1.18179306E2,8.210746E3,1.9644504E2,3.6657875E1,3.04085E2,4.4232727E1,7.069238E0,1.1111006E2,7.8182446E3,3.9250183E2,1.8994814E2,6.496892E0,1.3785067E1,2.287281E1,1.6483298E2,1.3925203E2,9.0311985E0,3.5201527E1,5.3784566E0,1.6907817E0,5.0568764E1,6.05413E1,7.485216E3,3.3302878E2,2.6204224E1,3.662976E2,1.8570193E2,4.2462077E0,4.089686E0,2.4072063E0,1.1758701E1,2.0263653E0,7.0455394E0,1.58272705E1,3.4252266E1,1.305807E2,6.81838E1,7.106823E1,8.011094E0,1.0201045E0,3.3225174E1,1.9763547E0,2.1997885E1,3.854342E1,5.8630684E3,1.6221476E3,2.8326816E2,4.976064E1,1.2329848E1,1.3874375E1,2.4540536E2,1.2089222E2,3.827862E1,1.4742331E2,1.6899301E0,2.5562778E0,1.184801E0,1.2224054E0,9.798928E0,1.9597733E0,1.0386666E0,6.0068727E0,1.3628913E1,2.1983576E0,1.4933156E1,1.931911E1,9.9094696E1,3.1486008E1,6.224201E1,5.9417896E0,1.5374178E1,5.5694054E1,1.0146441E0,6.99645E0,1.0869027E0,3.213827E1,5.646779E3,2.1628934E2,1.3352349E3,2.869128E2,2.69681E2,1.35871525E1,3.691634E1,1.28443E1,4.6842737E0,7.6455746E0,9.625906E0,4.2484694E0,6.1643578E1,1.837618E2,7.738039E1,4.351184E1],"tree_param":{"num_deleted":"0","num_feature":"22","num_nodes":"97","size_leaf_vector":"1"}},{"base_weights":[-8.937185E-4,5.8119435E-2,-2.2220814E-1,1.1855309E-2,1.560441E0,-1.2781372E0,-6.293697E-2,6.1410688E-2,-7.390309E-1,1.3058889E0,1.8138143E0,-1.3608688E0,6.894716E-1,1.4942664E0,-2.5556678E-1,-7.970126E-3,1.517973E0,-4.4993716E-1,-1.3996253E0,3.9799505E-1,3.5732797E-1,2.1094353E0,4.0266314E-1,-1.377846E0,3.5542867E-1,1.0441942E0,-2.084016E-1,1.5157315E0,-1.7303257E-1,-8.861868E-1,-5.2980963E-2,4.817813E-2,-1.0015074E0,1.3946882E0,2.1992466E0,-1.0509673E0,1.6026316E-2,-1.0974902E0,-2.4678864E0,-6.832483E-2,2.4367996E-1,2.178406E0,3.5035717E-1,-1.2684724E0,-1.8730115E0,1.6888903E-1,-7.748794E-3,-8.1353985E-2,1.2600753E0,1.3279004E0,1.6897773E0,-1.765367E-1,1.036969E-1,-4.2117432E-1,-1.0149822E0,1.5356287E0,-2.1764797E-1,-1.8720577E-2,4.499151E-1,-2.388493E-1,-5.400656E-1,4.4511342E-1,3.7299415E-1,7.174135E-1,2.4319011E-1,-3.5901242E-1,-2.6976638E-2,-3.215539E-1,7.933715E-2,-3.6278835E-1,2.3346465E-2,-1.5328395E-1,-7.7422047E-1,6.7844355E-1,3.6817694E-1,-3.9178863E-1,3.7430996E-1,-5.839911E-1,5.586568E-2,4.275952E-1,2.7901396E-2,3.7706742E-1,5.381172E-1,6.072823E-1,4.4047135E-1,2.8479928E-1,-2.3230535E-1,-3.3936748E-1,-7.349869E-2,4.6979842E-1,1.2816717E-1,-8.179747E-2,3.519692E-1],"categories":[],"categories_nodes":[],"categories_segments":[],"categories_sizes":[],"default_left":[0,0,0,0,0,0,0,0,0,0,0,0,0,0,0,0,0,0,0,0,0,0,0,0,0,0,0,0,0,0,0,0,0,0,0,0,0,0,0,0,0,0,0,0,0,0,0,0,0,0,0,0,0,0,0,0,0,0,0,0,0,0,0,0,0,0,0,0,0,0,0,0,0,0,0,0,0,0,0,0,0,0,0,0,0,0,0,0,0,0,0,0,0],"id":11,"left_children":[1,3,5,7,9,11,13,15,17,19,21,23,25,27,29,31,33,35,37,-1,39,41,-1,43,45,47,-1,49,51,53,55,57,59,61,63,65,67,69,71,-1,-1,73,-1,75,77,-1,-1,-1,79,81,83,-1,-1,85,87,89,91,-1,-1,-1,-1,-1,-1,-1,-1,-1,-1,-1,-1,-1,-1,-1,-1,-1,-1,-1,-1,-1,-1,-1,-1,-1,-1,-1,-1,-1,-1,-1,-1,-1,-1,-1,-1],"loss_changes":[1.1347028E2,4.7671484E2,3.075139E2,2.476887E2,1.084729E1,3.9951508E1,4.77416E2,6.310259E2,7.8070724E1,1.6092529E0,1.1127228E1,7.2010803E0,5.7993274E0,6.5329895E0,1.8086536E2,3.32596E2,2.0778503E1,8.0709274E1,3.76279E1,0E0,1.1523877E0,1.3390503E0,0E0,9.987213E0,2.5594822E-1,2.7910566E0,0E0,3.4146729E0,8.766798E-1,2.018985E1,2.8098178E2,9.059042E2,5.0871704E1,1.4317322E0,9.2057495E0,1.7518295E1,4.4413097E1,1.3132256E1,4.589325E0,0E0,0E0,1.5353699E0,0E0,1.9559418E1,6.3059845E0,0E0,0E0,0E0,1.3305054E0,6.53595E-1,3.4136353E0,0E0,0E0,3.770304E1,2.3788177E1,2.7265625E0,7.4763626E1,0E0,0E0,0E0,0E0,0E0,0E0,0E0,0E0,0E0,0E0,0E0,0E0,0E0,0E0,0E0,0E0,0E0,0E0,0E0,0E0,0E0,0E0,0E0,0E0,0E0,0E0,0E0,0E0,0E0,0E0,0E0,0E0,0E0,0E0,0E0,0E0],"parents":[2147483647,0,0,1,1,2,2,3,3,4,4,5,5,6,6,7,7,8,8,9,9,10,10,11,11,12,12,13,13,14,14,15,15,16,16,17,17,18,18,20,20,21,21,23,23,24,24,25,25,27,27,28,28,29,29,30,30,31,31,32,32,33,33,34,34,35,35,36,36,37,37,38,38,41,41,43,43,44,44,48,48,49,49,50,50,53,53,54,54,55,55,56,56],"right_children":[2,4,6,8,10,12,14,16,18,20,22,24,26,28,30,32,34,36,38,-1,40,42,-1,44,46,48,-1,50,52,54,56,58,60,62,64,66,68,70,72,-1,-1,74,-1,76,78,-1,-1,-1,80,82,84,-1,-1,86,88,90,92,-1,-1,-1,-1,-1,-1,-1,-1,-1,-1,-1,-1,-1,-1,-1,-1,-1,-1,-1,-1,-1,-1,-1,-1,-1,-1,-1,-1,-1,-1,-1,-1,-1,-1,-1,-1],"split_conditions":[7.282806E-1,5.0827146E-1,7.546125E-1,4.9442664E-1,1.758214E-1,1.6502258E0,9.621346E-1,2.8599364E-1,-2.2493482E-2,3.3215305E-1,-4.2251602E-1,2.0899262E0,7.974515E-1,3.9223745E-1,1.0206928E0,2.6057264E-1,5.864519E-1,-4.3224278E-1,1.8492052E-1,3.9799505E-1,8.951979E-1,-4.2359394E-1,4.0266314E-1,7.2553647E-1,-8.160239E-1,-1.7700246E-1,-2.084016E-1,1.758214E-1,1.1774602E0,-1.8793604E-1,1.1959887E0,3.754571E-2,1.0769242E0,5.1577155E-2,-4.254401E-1,-4.159887E-1,-5.8777034E-1,8.537976E-1,-2.3859358E-1,-6.832483E-2,2.4367996E-1,1.6435846E0,3.5035717E-1,4.164818E-1,-4.1386512E-1,1.6888903E-1,-7.748794E-3,-8.1353985E-2,1.3827882E0,1.5031524E0,-3.0961898E-1,-1.765367E-1,1.036969E-1,-5.274877E-1,-4.1913664E-1,2.8408557E-1,1.6502258E0,-1.8720577E-2,4.499151E-1,-2.388493E-1,-5.400656E-1,4.4511342E-1,3.7299415E-1,7.174135E-1,2.4319011E-1,-3.5901242E-1,-2.6976638E-2,-3.215539E-1,7.933715E-2,-3.6278835E-1,2.3346465E-2,-1.5328395E-1,-7.7422047E-1,6.7844355E-1,3.6817694E-1,-3.9178863E-1,3.7430996E-1,-5.839911E-1,5.586568E-2,4.275952E-1,2.7901396E-2,3.7706742E-1,5.381172E-1,6.072823E-1,4.4047135E-1,2.8479928E-1,-2.3230535E-1,-3.3936748E-1,-7.349869E-2,4.6979842E-1,1.2816717E-1,-8.179747E-2,3.519692E-1],"split_indices":[5,5,5,5,0,0,5,5,2,12,17,7,3,12,5,5,0,10,7,0,1,19,0,7,0,12,0,0,10,0,5,5,11,7,19,19,4,0,10,0,0,18,0,7,17,0,0,0,1,20,7,0,0,9,17,12,0,0,0,0,0,0,0,0,0,0,0,0,0,0,0,0,0,0,0,0,0,0,0,0,0,0,0,0,0,0,0,0,0,0,0,0,0],"split_type":[0,0,0,0,0,0,0,0,0,0,0,0,0,0,0,0,0,0,0,0,0,0,0,0,0,0,0,0,0,0,0,0,0,0,0,0,0,0,0,0,0,0,0,0,0,0,0,0,0,0,0,0,0,0,0,0,0,0,0,0,0,0,0,0,0,0,0,0,0,0,0,0,0,0,0,0,0,0,0,0,0,0,0,0,0,0,0,0,0,0,0,0,0],"sum_hessian":[8.686087E3,6.858118E3,1.8279692E3,6.654209E3,2.0390904E2,2.386635E2,1.5893057E3,6.243108E3,4.1110104E2,1.0478773E2,9.9121315E1,2.2932932E2,9.334193E0,1.7421432E2,1.4150914E3,5.9601987E3,2.8290918E2,2.871275E2,1.2397355E2,1.0215329E2,2.6344416E0,5.8793926E1,4.032739E1,2.2727832E2,2.0509877E0,7.6255507E0,1.7086421E0,1.7208972E2,2.12461E0,3.4324512E2,1.0718462E3,5.642285E3,3.179137E2,2.4213844E2,4.0770733E1,1.2484228E2,1.6228522E2,9.822113E1,2.5752413E1,1.3708425E0,1.263599E0,5.3557278E1,5.2366476E0,1.8907632E2,3.8201996E1,1.0194588E0,1.0315288E0,1.0389605E0,6.5865903E0,8.69175E1,8.517222E1,1.1050549E0,1.0195552E0,7.5375175E1,2.6786996E2,9.9885414E1,9.719608E2,5.2437656E3,3.985196E2,2.5448438E2,6.342933E1,1.4692834E2,9.5210106E1,3.5180893E1,5.5898376E0,1.08190216E2,1.6652063E1,2.9554096E1,1.3273112E2,8.9662834E1,8.558298E0,1.7054467E0,2.4046967E1,4.7988403E1,5.568877E0,1.8677446E2,2.3018644E0,3.6936066E1,1.2659314E0,5.575846E0,1.0107442E0,7.862961E1,8.287898E0,3.0692734E1,5.447948E1,1.5098264E1,6.027691E1,2.3232706E2,3.5542904E1,9.682008E1,3.065329E0,9.35755E2,3.620582E1],"tree_param":{"num_deleted":"0","num_feature":"22","num_nodes":"93","size_leaf_vector":"1"}},{"base_weights":[3.339184E-3,1.0705757E-1,-1.2169194E-1,-8.2288474E-2,1.1785266E0,-1.0715626E0,8.2133E-2,8.488148E-2,-6.3316625E-1,1.480404E0,7.057921E-1,-9.524729E-1,-1.8662676E0,1.3489419E0,-6.4068854E-2,-3.984986E-2,1.4961812E0,-7.29771E-1,1.7089039E-1,1.4171191E0,2.2219784E0,1.5414338E-1,4.4795004E-1,-7.2446257E-1,-1.3251761E0,-1.9141878E0,1.9926119E-1,1.2875541E0,1.8883525E0,-7.343988E-1,1.823643E-2,7.1369484E-2,-9.6143264E-1,1.537331E0,1.1630828E0,-6.212613E-1,-1.3625029E0,-1.2288823E0,5.344082E-1,1.3059988E0,1.5319128E0,7.185708E-1,3.1437683E-1,6.1686397E-1,-4.302153E-1,-5.9841496E-1,-1.2028458E0,1.0942603E0,-1.3814144E0,-1.9907137E0,-7.366644E-1,1.1920829E0,1.3870182E0,6.2694955E-1,1.0090172E0,-1.1088997E0,-5.002306E-1,1.326562E0,-1.18002385E-1,-4.3990918E-2,2.2443217E-1,-3.3110502E-1,4.1492316E-1,5.722605E-1,4.421287E-1,3.5712513E-1,6.791209E-2,-4.4840923E-1,-1.6456144E-1,-4.5115808E-1,1.1164818E-1,-1.5114118E-1,-6.328777E-1,2.2865094E-1,-3.2213053E-1,3.9336368E-1,4.6807334E-2,5.618633E-1,4.3574324E-1,-3.626027E-1,2.1121751E-1,-3.0261695E-1,2.5656265E-1,-1.923796E-1,5.116519E-1,-3.7352422E-1,1.742471E-1,8.393704E-2,3.7687007E-1,-2.53181E-1,-4.7785354E-1,-7.077296E-1,-5.062544E-1,3.9341524E-3,-2.7157876E-1,3.5965738E-1,2.1178786E-2,4.8919708E-1,3.8010684E-1,3.3017564E-1,6.887847E-2,8.82632E-2,-3.8959208E-1,4.5866337E-1,-1.8784827E-1,4.3247038E-1,3.4930784E-1,-2.749855E-1,-1.8067153E-2],"categories":[],"categories_nodes":[],"categories_segments":[],"categories_sizes":[],"default_left":[0,0,0,0,0,0,0,0,0,0,0,0,0,0,0,0,0,0,0,0,0,0,0,0,0,0,0,0,0,0,0,0,0,0,0,0,0,0,0,0,0,0,0,0,0,0,0,0,0,0,0,0,0,0,0,0,0,0,0,0,0,0,0,0,0,0,0,0,0,0,0,0,0,0,0,0,0,0,0,0,0,0,0,0,0,0,0,0,0,0,0,0,0,0,0,0,0,0,0,0,0,0,0,0,0,0,0,0,0],"id":12,"left_children":[1,3,5,7,9,11,13,15,17,19,21,23,25,27,29,31,33,35,37,39,41,43,-1,45,47,49,-1,51,53,55,57,59,61,63,65,67,69,71,73,75,77,-1,-1,79,81,83,85,87,89,91,93,95,97,-1,99,101,103,105,107,-1,-1,-1,-1,-1,-1,-1,-1,-1,-1,-1,-1,-1,-1,-1,-1,-1,-1,-1,-1,-1,-1,-1,-1,-1,-1,-1,-1,-1,-1,-1,-1,-1,-1,-1,-1,-1,-1,-1,-1,-1,-1,-1,-1,-1,-1,-1,-1,-1,-1],"loss_changes":[1.0868121E2,9.2943304E2,7.357857E2,3.5863113E2,9.713696E1,6.176581E1,5.79707E2,5.260701E2,7.054797E1,1.6513123E1,1.1705905E2,4.883441E1,1.1755524E1,8.29248E0,1.5486276E2,2.8157452E2,1.538208E0,5.473706E1,5.055148E1,2.9585571E0,3.8327484E0,4.3501324E1,0E0,2.1334702E1,3.1609436E1,6.2028503E0,0E0,1.1374817E0,3.3741837E0,2.636383E1,4.4589838E2,3.6180563E2,1.00187164E2,2.198639E0,5.188904E-1,4.3192566E1,2.941449E1,1.2039686E1,2.9585127E1,1.0204468E0,2.3024902E0,0E0,0E0,1.5120895E1,5.384699E1,2.98685E1,6.3945236E0,3.8502693E-1,2.3272186E1,4.8795166E0,8.690772E-1,1.1088867E0,1.9633789E0,0E0,2.9704714E-1,3.160231E1,4.968178E1,2.7225647E0,1.044953E2,0E0,0E0,0E0,0E0,0E0,0E0,0E0,0E0,0E0,0E0,0E0,0E0,0E0,0E0,0E0,0E0,0E0,0E0,0E0,0E0,0E0,0E0,0E0,0E0,0E0,0E0,0E0,0E0,0E0,0E0,0E0,0E0,0E0,0E0,0E0,0E0,0E0,0E0,0E0,0E0,0E0,0E0,0E0,0E0,0E0,0E0,0E0,0E0,0E0,0E0],"parents":[2147483647,0,0,1,1,2,2,3,3,4,4,5,5,6,6,7,7,8,8,9,9,10,10,11,11,12,12,13,13,14,14,15,15,16,16,17,17,18,18,19,19,20,20,21,21,23,23,24,24,25,25,27,27,28,28,29,29,30,30,31,31,32,32,33,33,34,34,35,35,36,36,37,37,38,38,39,39,40,40,43,43,44,44,45,45,46,46,47,47,48,48,49,49,50,50,51,51,52,52,54,54,55,55,56,56,57,57,58,58],"right_children":[2,4,6,8,10,12,14,16,18,20,22,24,26,28,30,32,34,36,38,40,42,44,-1,46,48,50,-1,52,54,56,58,60,62,64,66,68,70,72,74,76,78,-1,-1,80,82,84,86,88,90,92,94,96,98,-1,100,102,104,106,108,-1,-1,-1,-1,-1,-1,-1,-1,-1,-1,-1,-1,-1,-1,-1,-1,-1,-1,-1,-1,-1,-1,-1,-1,-1,-1,-1,-1,-1,-1,-1,-1,-1,-1,-1,-1,-1,-1,-1,-1,-1,-1,-1,-1,-1,-1,-1,-1,-1,-1],"split_conditions":[2.6718657E-2,-1.9660325E-1,3.754571E-2,-2.0713533E-1,-2.239068E-2,7.7273816E-1,2.6057264E-1,-3.505295E-1,1.0181212E0,5.864519E-1,-1.5975527E-2,1.8927653E-1,2.796741E0,5.864519E-1,2.8599364E-1,-3.6211145E-1,1.3636016E0,1.1006956E0,-3.2089978E-1,1.758214E-1,-4.2427786E-2,8.95744E-2,4.4795004E-1,5.395788E-1,-8.9595383E-1,-3.8718387E-1,1.9926119E-1,1.758214E-1,-4.3273163E-1,-3.3765104E-1,4.9442664E-1,-6.641151E-1,-8.9595383E-1,5.715908E-1,2.4557836E0,-8.9804006E-1,1.0922917E0,-2.660384E-1,-8.940727E-2,2.645929E0,-3.0961898E-1,7.185708E-1,3.1437683E-1,-1.2574801E0,1.0715399E0,3.9013854E-1,1.5861539E0,3.269034E-1,-2.7672848E-1,-5.4726726E-1,7.3199487E-1,3.1947842E0,-4.2977947E-1,6.2694955E-1,-3.981546E-1,-1.5279347E0,-3.4116316E-1,-4.2853975E-1,-1.1950281E0,-4.3990918E-2,2.2443217E-1,-3.3110502E-1,4.1492316E-1,5.722605E-1,4.421287E-1,3.5712513E-1,6.791209E-2,-4.4840923E-1,-1.6456144E-1,-4.5115808E-1,1.1164818E-1,-1.5114118E-1,-6.328777E-1,2.2865094E-1,-3.2213053E-1,3.9336368E-1,4.6807334E-2,5.618633E-1,4.3574324E-1,-3.626027E-1,2.1121751E-1,-3.0261695E-1,2.5656265E-1,-1.923796E-1,5.116519E-1,-3.7352422E-1,1.742471E-1,8.393704E-2,3.7687007E-1,-2.53181E-1,-4.7785354E-1,-7.077296E-1,-5.062544E-1,3.9341524E-3,-2.7157876E-1,3.5965738E-1,2.1178786E-2,4.8919708E-1,3.8010684E-1,3.3017564E-1,6.887847E-2,8.82632E-2,-3.8959208E-1,4.5866337E-1,-1.8784827E-1,4.3247038E-1,3.4930784E-1,-2.749855E-1,-1.8067153E-2],"split_indices":[5,5,5,5,5,4,5,5,1,0,5,14,18,0,5,5,18,20,15,0,14,4,0,0,3,17,0,0,19,8,5,5,3,16,8,0,7,7,10,4,7,0,0,8,20,0,15,14,9,0,1,2,19,0,17,9,9,19,9,0,0,0,0,0,0,0,0,0,0,0,0,0,0,0,0,0,0,0,0,0,0,0,0,0,0,0,0,0,0,0,0,0,0,0,0,0,0,0,0,0,0,0,0,0,0,0,0,0,0],"split_type":[0,0,0,0,0,0,0,0,0,0,0,0,0,0,0,0,0,0,0,0,0,0,0,0,0,0,0,0,0,0,0,0,0,0,0,0,0,0,0,0,0,0,0,0,0,0,0,0,0,0,0,0,0,0,0,0,0,0,0,0,0,0,0,0,0,0,0,0,0,0,0,0,0,0,0,0,0,0,0,0,0,0,0,0,0,0,0,0,0,0,0,0,0,0,0,0,0,0,0,0,0,0,0,0,0,0,0,0,0],"sum_hessian":[8.378701E3,4.5797534E3,3.7989475E3,3.8927622E3,6.8699133E2,6.70413E2,3.1285344E3,2.9871304E3,9.0563184E2,4.1796005E2,2.6903125E2,5.8495386E2,8.545913E1,3.2285303E2,2.8056814E3,2.7454573E3,2.4167305E2,8.0857635E2,9.705543E1,3.8777856E2,3.0181482E1,1.5889932E2,1.1013194E2,3.6475183E2,2.2020206E2,8.410986E1,1.3492669E0,2.9290576E2,2.9947277E1,3.0595212E2,2.4997295E3,2.4506306E3,2.948268E2,2.1188263E2,2.979042E1,6.919013E2,1.1667509E2,1.9518063E1,7.753737E1,2.0333089E2,1.8444768E2,2.5393915E1,4.787566E0,8.86482E1,7.025112E1,2.9046823E2,7.4283585E1,4.5828924E0,2.1561917E2,7.832877E1,5.7810903E0,1.560781E2,1.3682767E2,2.3244688E1,6.7025876E0,1.1626925E2,1.8968286E2,2.3492883E2,2.2648005E3,1.8541226E3,5.96508E2,2.7846072E2,1.6366066E1,2.6800087E1,1.8508253E2,2.868258E1,1.1078402E0,5.1677673E1,6.4022363E2,1.080067E2,8.668388E0,1.1567068E1,7.9509935E0,6.83791E1,9.158275E0,2.0227367E2,1.0572169E0,3.0585674E1,1.5386201E2,3.4548173E0,8.519338E1,4.8595757E1,2.1655363E1,2.85873E2,4.5952473E0,7.2860306E1,1.4232807E0,1.2126343E0,3.370258E0,6.2282486E1,1.5333669E2,3.230173E1,4.6027042E1,1.2306122E0,4.550478E0,1.5507228E2,1.005803E0,4.0997345E1,9.583032E1,5.6292043E0,1.0733837E0,1.3784415E1,1.0248483E2,1.0433159E1,1.7924971E2,1.3284843E2,1.0208041E2,1.5179692E2,2.1130037E3],"tree_param":{"num_deleted":"0","num_feature":"22","num_nodes":"109","size_leaf_vector":"1"}},{"base_weights":[7.940335E-3,-8.6809434E-2,1.2141506E-1,2.9708223E-2,-4.0888909E-1,1.3706625E0,6.6504456E-2,-1.4807159E-2,3.9317423E-1,-9.160947E-1,-1.8096869E-1,1.5687187E0,3.6855644E-1,-5.340799E-1,1.21428624E-1,1.6611342E-1,-3.160579E-1,-2.7940336E-1,-1.087682E0,-4.6182653E-1,2.8280643E-1,4.910163E-1,3.335505E-1,-2.4951734E-1,-1.1445346E0,8.376028E-1,5.0503332E-2,6.707711E-2,4.7166386E-1,-6.8840224E-1,1.4871821E-1,3.6726108E-1,-7.4061096E-1,-1.2181934E0,-2.3640963E-1,-6.6408956E-1,3.1052685E-1,1.2275499E0,3.6228962E-2,-5.013121E-1,2.608373E-1,-9.067955E-1,-1.3768245E0,-1.1498671E-1,9.7532195E-1,1.8204877E-1,-1.5131126E-1,3.0863414E-2,-3.782246E-1,-1.24566644E-1,-3.0667132E-1,7.560984E-1,-9.01201E-3,-2.9418966E-1,2.3316012E-1,-3.394184E-1,-8.730938E-2,5.7621665E-2,-3.845735E-1,8.757727E-2,-2.6817742E-1,-1.2346211E-1,-2.7618685E-1,2.167066E-1,-2.2761924E-2,3.8998553E-1,-1.1764362E-1,-2.494383E-1,7.722889E-2,-3.5173264E-1,-5.7669055E-2,-5.307485E-1,1.49412E-1,-2.9191175E-1,2.106097E-1,-4.2063335E-1,-4.155224E-2,-2.6887465E-1,9.363718E-2,2.3462388E-1,4.0459475E-1,1.9393127E-2,3.0416167E-1,-2.3133022E-1,-8.586789E-3],"categories":[],"categories_nodes":[],"categories_segments":[],"categories_sizes":[],"default_left":[0,0,0,0,0,0,0,0,0,0,0,0,0,0,0,0,0,0,0,0,0,0,0,0,0,0,0,0,0,0,0,0,0,0,0,0,0,0,0,0,0,0,0,0,0,0,0,0,0,0,0,0,0,0,0,0,0,0,0,0,0,0,0,0,0,0,0,0,0,0,0,0,0,0,0,0,0,0,0,0,0,0,0,0,0],"id":13,"left_children":[1,3,5,7,9,11,13,15,-1,17,19,21,-1,23,25,27,29,31,33,35,37,-1,-1,39,41,43,45,47,-1,49,51,53,55,57,59,61,63,65,67,69,71,73,75,77,79,81,83,-1,-1,-1,-1,-1,-1,-1,-1,-1,-1,-1,-1,-1,-1,-1,-1,-1,-1,-1,-1,-1,-1,-1,-1,-1,-1,-1,-1,-1,-1,-1,-1,-1,-1,-1,-1,-1,-1],"loss_changes":[8.565282E1,1.6293861E2,2.4857224E2,1.8185416E2,1.3317258E2,2.368103E0,1.14641045E2,1.6807956E2,0E0,3.8737396E1,1.0395123E2,4.8675537E-2,0E0,5.0302658E1,1.6164784E2,2.682115E2,2.003501E2,2.3299435E1,3.0948425E1,7.781654E1,7.0132774E1,0E0,0E0,2.5819698E1,3.8493347E0,3.773384E1,7.69478E1,8.574775E1,0E0,5.8180817E1,2.186195E2,1.88919E1,7.646736E0,2.2130524E1,1.3675478E1,2.5148743E1,1.6570007E1,7.818199E0,4.6264538E1,2.7613297E1,3.2999474E1,5.8572845E0,1.2074051E0,1.2665281E1,1.7028183E1,1.7128342E2,8.6960144E1,0E0,0E0,0E0,0E0,0E0,0E0,0E0,0E0,0E0,0E0,0E0,0E0,0E0,0E0,0E0,0E0,0E0,0E0,0E0,0E0,0E0,0E0,0E0,0E0,0E0,0E0,0E0,0E0,0E0,0E0,0E0,0E0,0E0,0E0,0E0,0E0,0E0,0E0],"parents":[2147483647,0,0,1,1,2,2,3,3,4,4,5,5,6,6,7,7,9,9,10,10,11,11,13,13,14,14,15,15,16,16,17,17,18,18,19,19,20,20,23,23,24,24,25,25,26,26,27,27,29,29,30,30,31,31,32,32,33,33,34,34,35,35,36,36,37,37,38,38,39,39,40,40,41,41,42,42,43,43,44,44,45,45,46,46],"right_children":[2,4,6,8,10,12,14,16,-1,18,20,22,-1,24,26,28,30,32,34,36,38,-1,-1,40,42,44,46,48,-1,50,52,54,56,58,60,62,64,66,68,70,72,74,76,78,80,82,84,-1,-1,-1,-1,-1,-1,-1,-1,-1,-1,-1,-1,-1,-1,-1,-1,-1,-1,-1,-1,-1,-1,-1,-1,-1,-1,-1,-1,-1,-1,-1,-1,-1,-1,-1,-1,-1,-1],"split_conditions":[-4.1285314E-2,1.6598289E-1,9.7859256E-2,-9.8909515E-1,-4.2576098E-1,-3.0961898E-1,1.0376539E-1,3.577001E-1,3.9317423E-1,1.8927653E-1,8.951979E-1,1.733089E0,3.6855644E-1,4.5499317E-2,2.4611248E-1,1.9884631E-1,5.864519E-1,-7.433481E-1,-4.1645744E-1,-3.2755077E-1,1.0133538E0,4.910163E-1,3.335505E-1,7.408515E-1,-8.8437594E-2,-4.3345496E-1,2.6718657E-2,3.5098982E-1,4.7166386E-1,5.395788E-1,7.2145754E-1,-9.9026513E-1,-2.7147415E-1,-8.491785E-1,-4.7328407E-1,8.911177E-1,3.1731162E-2,1.4298426E0,-4.2061922E-1,-3.9856246E-1,-8.836136E-1,-1.3655642E-1,2.4087615E0,-3.3618677E-1,1.4921486E-1,-1.9660325E-1,3.754571E-2,3.0863414E-2,-3.782246E-1,-1.24566644E-1,-3.0667132E-1,7.560984E-1,-9.01201E-3,-2.9418966E-1,2.3316012E-1,-3.394184E-1,-8.730938E-2,5.7621665E-2,-3.845735E-1,8.757727E-2,-2.6817742E-1,-1.2346211E-1,-2.7618685E-1,2.167066E-1,-2.2761924E-2,3.8998553E-1,-1.1764362E-1,-2.494383E-1,7.722889E-2,-3.5173264E-1,-5.7669055E-2,-5.307485E-1,1.49412E-1,-2.9191175E-1,2.106097E-1,-4.2063335E-1,-4.155224E-2,-2.6887465E-1,9.363718E-2,2.3462388E-1,4.0459475E-1,1.9393127E-2,3.0416167E-1,-2.3133022E-1,-8.586789E-3],"split_indices":[15,1,15,1,19,7,15,0,0,14,1,18,0,4,15,0,0,20,17,3,1,0,0,14,12,19,5,14,0,0,0,4,9,18,9,1,12,5,19,9,5,12,10,9,15,5,5,0,0,0,0,0,0,0,0,0,0,0,0,0,0,0,0,0,0,0,0,0,0,0,0,0,0,0,0,0,0,0,0,0,0,0,0,0,0],"split_type":[0,0,0,0,0,0,0,0,0,0,0,0,0,0,0,0,0,0,0,0,0,0,0,0,0,0,0,0,0,0,0,0,0,0,0,0,0,0,0,0,0,0,0,0,0,0,0,0,0,0,0,0,0,0,0,0,0,0,0,0,0,0,0,0,0,0,0,0,0,0,0,0,0,0,0,0,0,0,0,0,0,0,0,0,0],"sum_hessian":[7.9644614E3,4.340468E3,3.6239934E3,3.1880469E3,1.152421E3,1.5157664E2,3.4724167E3,3.081926E3,1.06120674E2,3.5636353E2,7.960575E2,5.913831E1,9.243834E1,2.9021808E2,3.1821987E3,1.9258044E3,1.1561217E3,7.62094E1,2.801541E2,4.9580612E2,3.0025134E2,4.9228775E1,9.909534E0,1.9890674E2,9.1311356E1,2.857729E2,2.8964258E3,1.8000673E3,1.2573709E2,6.416211E2,5.145007E2,3.1810802E1,4.439859E1,2.4253868E2,3.761544E1,3.9302213E2,1.0278401E2,6.132205E1,2.389293E2,1.3320488E2,6.570186E1,4.7549812E1,4.3761543E1,3.6117428E1,2.4965547E2,1.7535419E3,1.142884E3,1.7537063E3,4.636103E1,3.5410117E2,2.875199E2,3.5143818E1,4.7935684E2,7.0938525E0,2.471695E1,2.2941133E1,2.1457457E1,1.0397523E1,2.3214116E2,2.1164846E1,1.6450596E1,1.9936122E2,1.936609E2,4.9333977E1,5.3450035E1,5.8887154E1,2.434896E0,4.7976414E1,1.909529E2,4.1121574E1,9.2083305E1,6.1982574E0,5.95036E1,4.604893E1,1.5008829E0,4.2756187E1,1.005357E0,1.2377803E1,2.3739626E1,1.6654369E2,8.311179E1,1.5376E3,2.1594186E2,1.8797925E2,9.549047E2],"tree_param":{"num_deleted":"0","num_feature":"22","num_nodes":"85","size_leaf_vector":"1"}},{"base_weights":[6.5465323E-3,-2.4858085E-2,2.9348713E-1,-6.448359E-3,-1.0700328E0,1.3757669E0,9.860812E-2,-2.953039E-2,8.928806E-1,-1.3699299E0,-6.0074323E-1,3.7868756E-1,2.0621243E0,-1.1085572E0,3.114648E-1,1.2956723E-2,-5.999818E-1,1.0727316E0,-3.9387783E-1,-1.4722046E0,3.8246036E-1,-1.0063119E0,1.4387798E-1,7.2630584E-1,3.4094512E-1,-1.2301937E0,5.185712E-1,-3.241511E-1,5.9376895E-1,-1.0167324E-2,8.410751E-1,-1.0976888E0,-4.258239E-1,8.537961E-1,3.8684252E-1,6.841433E-1,-1.6934392E0,-1.6165881E0,-1.0499057E0,-2.6755956E-1,2.967881E-1,-1.3325242E0,1.0287068E0,9.12151E-1,-1.0335276E0,-5.497576E-1,-1.3782039E0,7.618542E-1,-1.3496476E-1,-6.528045E-1,7.102715E-1,7.225128E-1,-6.1881906E-1,5.271231E-2,-2.6024075E-2,1.2874477E-1,4.6500704E-1,-4.1492695E-1,-1.5750526E-1,2.877324E-1,-2.0268188E-1,3.462365E-1,1.19886935E-1,-1.9737479E-1,3.1981382E-1,-7.3787856E-1,2.322552E-1,-3.453803E-1,-5.49047E-1,-3.523485E-1,5.621438E-2,-4.1676185E-1,-7.562739E-2,4.7036003E-2,3.6645547E-1,-2.8771007E-1,3.7098238E-1,-3.9176363E-2,-3.5281056E-1,5.2682914E-2,-4.0007827E-1,-3.5489893E-1,-4.9308306E-1,-1.2865785E-1,3.211918E-1,3.5676116E-1,-2.554239E-1,-1.6020198E-1,2.5766295E-1,3.6776534E-1,1.750038E-1,-2.8725132E-1,1.9351341E-1],"categories":[],"categories_nodes":[],"categories_segments":[],"categories_sizes":[],"default_left":[0,0,0,0,0,0,0,0,0,0,0,0,0,0,0,0,0,0,0,0,0,0,0,0,0,0,0,0,0,0,0,0,0,0,0,0,0,0,0,0,0,0,0,0,0,0,0,0,0,0,0,0,0,0,0,0,0,0,0,0,0,0,0,0,0,0,0,0,0,0,0,0,0,0,0,0,0,0,0,0,0,0,0,0,0,0,0,0,0,0,0,0,0],"id":14,"left_children":[1,3,5,7,9,11,13,15,17,19,21,-1,23,25,27,29,31,33,35,37,39,41,43,-1,-1,45,47,49,51,53,55,57,59,61,-1,63,65,67,69,-1,-1,71,73,75,77,79,81,83,-1,85,87,89,91,-1,-1,-1,-1,-1,-1,-1,-1,-1,-1,-1,-1,-1,-1,-1,-1,-1,-1,-1,-1,-1,-1,-1,-1,-1,-1,-1,-1,-1,-1,-1,-1,-1,-1,-1,-1,-1,-1,-1,-1],"loss_changes":[6.894129E1,1.326824E2,1.5904584E2,1.4071973E2,1.5975357E1,6.360306E0,1.6495958E2,1.601901E2,3.9680008E1,1.3474594E1,1.47364235E1,0E0,2.1483688E0,1.968737E1,9.805565E1,1.1781413E2,3.9244064E1,5.9742584E0,3.1326311E1,2.4656525E0,4.5682263E0,2.2219152E1,1.71455E1,0E0,0E0,8.291351E0,2.0858064E0,5.7707344E1,5.9459442E1,8.5218185E1,4.8142136E1,1.8580048E1,1.186167E2,1.0059937E1,0E0,7.099025E0,2.0907125E1,2.7651215E0,3.3413963E0,0E0,0E0,1.3340569E0,6.327715E-1,8.089206E0,8.168478E-1,1.0307175E1,1.8446655E0,2.7696435E0,0E0,4.7950684E1,8.054094E0,2.3256134E1,1.6378866E1,0E0,0E0,0E0,0E0,0E0,0E0,0E0,0E0,0E0,0E0,0E0,0E0,0E0,0E0,0E0,0E0,0E0,0E0,0E0,0E0,0E0,0E0,0E0,0E0,0E0,0E0,0E0,0E0,0E0,0E0,0E0,0E0,0E0,0E0,0E0,0E0,0E0,0E0,0E0,0E0],"parents":[2147483647,0,0,1,1,2,2,3,3,4,4,5,5,6,6,7,7,8,8,9,9,10,10,12,12,13,13,14,14,15,15,16,16,17,17,18,18,19,19,20,20,21,21,22,22,25,25,26,26,27,27,28,28,29,29,30,30,31,31,32,32,33,33,35,35,36,36,37,37,38,38,41,41,42,42,43,43,44,44,45,45,46,46,47,47,49,49,50,50,51,51,52,52],"right_children":[2,4,6,8,10,12,14,16,18,20,22,-1,24,26,28,30,32,34,36,38,40,42,44,-1,-1,46,48,50,52,54,56,58,60,62,-1,64,66,68,70,-1,-1,72,74,76,78,80,82,84,-1,86,88,90,92,-1,-1,-1,-1,-1,-1,-1,-1,-1,-1,-1,-1,-1,-1,-1,-1,-1,-1,-1,-1,-1,-1,-1,-1,-1,-1,-1,-1,-1,-1,-1,-1,-1,-1,-1,-1,-1,-1,-1,-1],"split_conditions":[1.0181212E0,1.0133538E0,1.1545824E0,8.951979E-1,-4.0844506E-1,2.8408557E-1,1.1582731E0,8.721253E-1,2.088362E0,-4.0358528E-1,1.3236767E0,3.7868756E-1,1.094046E0,1.7830777E0,-4.2329705E-1,8.081223E-1,8.750179E-1,-1.4282843E-1,-1.30801E-1,2.8599364E-1,5.1270306E-1,-5.689977E-2,1.5660896E0,7.2630584E-1,3.4094512E-1,-7.2593397E-1,1.8290845E-1,-4.098359E-1,4.1627118E-1,-6.057326E-3,-4.2576098E-1,-4.154751E-1,8.911177E-1,-2.4609655E-2,3.8684252E-1,-3.5403436E-1,2.0899262E0,-1.340036E-1,1.0922917E0,-2.6755956E-1,2.967881E-1,-3.238391E-1,-4.0416703E-1,1.0283802E0,2.6906803E-1,3.8316674E-3,4.4123758E-2,-2.6090595E-1,-1.3496476E-1,1.2958108E0,-4.730433E-1,1.2958108E0,2.5743513E0,5.271231E-2,-2.6024075E-2,1.2874477E-1,4.6500704E-1,-4.1492695E-1,-1.5750526E-1,2.877324E-1,-2.0268188E-1,3.462365E-1,1.19886935E-1,-1.9737479E-1,3.1981382E-1,-7.3787856E-1,2.322552E-1,-3.453803E-1,-5.49047E-1,-3.523485E-1,5.621438E-2,-4.1676185E-1,-7.562739E-2,4.7036003E-2,3.6645547E-1,-2.8771007E-1,3.7098238E-1,-3.9176363E-2,-3.5281056E-1,5.2682914E-2,-4.0007827E-1,-3.5489893E-1,-4.9308306E-1,-1.2865785E-1,3.211918E-1,3.5676116E-1,-2.554239E-1,-1.6020198E-1,2.5766295E-1,3.6776534E-1,1.750038E-1,-2.8725132E-1,1.9351341E-1],"split_indices":[1,1,1,1,17,12,1,1,7,19,4,0,18,7,19,1,1,12,4,5,14,13,4,0,0,9,6,17,12,0,19,19,1,5,0,6,7,7,7,0,0,7,17,20,20,7,7,12,0,1,15,1,10,0,0,0,0,0,0,0,0,0,0,0,0,0,0,0,0,0,0,0,0,0,0,0,0,0,0,0,0,0,0,0,0,0,0,0,0,0,0,0,0],"split_type":[0,0,0,0,0,0,0,0,0,0,0,0,0,0,0,0,0,0,0,0,0,0,0,0,0,0,0,0,0,0,0,0,0,0,0,0,0,0,0,0,0,0,0,0,0,0,0,0,0,0,0,0,0,0,0,0,0,0,0,0,0,0,0,0,0,0,0,0,0,0,0,0,0,0,0,0,0,0,0,0,0,0,0,0,0,0,0,0,0,0,0,0,0],"sum_hessian":[7.648762E3,6.895038E3,7.537238E2,6.7766797E3,1.1835839E2,1.1408454E2,6.396393E2,6.608046E3,1.6863387E2,7.104092E1,4.7317474E1,1.0033528E2,1.3749257E1,9.524908E1,5.443902E2,6.150905E3,4.5714096E2,1.4810014E2,2.0533714E1,6.727447E1,3.766449E0,3.0405334E1,1.691214E1,8.743621E0,5.005636E0,8.8850945E1,6.398131E0,1.6738036E2,3.7700986E2,5.9847764E3,1.6612877E2,1.1712348E2,3.400175E2,7.613467E1,7.1965485E1,1.1482352E1,9.051362E0,4.802627E1,1.9248196E1,1.0634799E0,2.702969E0,2.6502243E1,3.9030912E0,1.03705225E1,6.541618E0,1.6716364E1,7.213458E1,5.2840633E0,1.114068E0,1.27302986E2,4.007737E1,3.4118903E2,3.5820824E1,1.7458737E3,4.2389023E3,1.06091125E2,6.0037643E1,7.7222916E1,3.9900574E1,5.1520348E1,2.8849713E2,4.490183E1,3.1232838E1,2.3835378E0,9.098815E0,6.909371E0,2.1419914E0,1.7118753E1,3.0907516E1,1.7533407E1,1.7147875E0,2.4909641E1,1.5926027E0,1.0351517E0,2.8679397E0,1.2434684E0,9.127054E0,1.1529279E0,5.38869E0,9.085004E0,7.631359E0,4.4708557E1,2.7426023E1,1.008047E0,4.276016E0,1.1904666E1,1.1539832E2,3.9991112E0,3.607826E1,7.220654E1,2.6898248E2,2.8441563E1,7.3792615E0],"tree_param":{"num_deleted":"0","num_feature":"22","num_nodes":"93","size_leaf_vector":"1"}},{"base_weights":[6.081425E-3,2.1495624E-2,-5.643383E-1,-1.7239152E-1,7.038817E-2,-7.364975E-1,7.5234795E-1,-6.6884235E-2,-6.2444264E-1,1.2815009E0,3.3969812E-2,-8.71872E-1,-9.5449165E-2,1.5270615E0,-9.6931225E-1,8.378314E-2,-3.1047362E-1,-4.201438E-1,-9.2223674E-1,3.7207168E-1,4.9358615E-1,-5.274901E-3,3.1471437E-1,-4.8389557E-1,-1.1584626E0,-3.9875335E-1,7.3945075E-1,1.2029815E0,9.9327636E-1,-3.2125777E-1,-7.718065E-2,-9.579014E-2,1.3955894E0,6.586162E-1,-3.893062E-1,-8.433933E-1,-1.5901488E-1,-1.0051764E0,-5.197995E-1,4.299509E-3,-1.2745436E0,-1.174962E0,3.6465433E-1,-7.209403E-1,1.1498655E0,1.283328E-1,-1.2037965E0,-9.861026E-1,4.507171E-1,-1.105865E-1,9.323476E-1,-2.3847742E-1,1.3532339E0,6.6686206E-2,-8.23502E-2,3.4922478E-1,4.804408E-1,3.1385124E-1,-4.3493783E-1,-1.9600777E-1,-6.3523114E-2,-5.420288E-2,-2.8654173E-1,3.5802704E-1,-7.8250304E-2,-1.3809617E-1,-3.1312552E-1,1.3251367E-1,-3.0882484E-1,-1.4533111E-1,7.5575756E-3,-3.4638953E-1,-5.3362143E-1,-4.0415484E-1,9.5826685E-2,4.366614E-1,9.0788506E-2,-1.9001858E-2,-2.94893E-1,4.7530293E-1,-1.8984269E-1,-6.0707483E-2,-3.6646825E-1,-3.718223E-1,-2.4854682E-2,3.355166E-1,-2.1325661E-1,-1.4814072E-2,3.284286E-1,5.463895E-1,1.4426434E-1],"categories":[],"categories_nodes":[],"categories_segments":[],"categories_sizes":[],"default_left":[0,0,0,0,0,0,0,0,0,0,0,0,0,0,0,0,0,0,0,0,0,0,0,0,0,0,0,0,0,0,0,0,0,0,0,0,0,0,0,0,0,0,0,0,0,0,0,0,0,0,0,0,0,0,0,0,0,0,0,0,0,0,0,0,0,0,0,0,0,0,0,0,0,0,0,0,0,0,0,0,0,0,0,0,0,0,0,0,0,0,0],"id":15,"left_children":[1,3,5,7,9,11,13,15,17,19,21,23,25,27,29,31,33,35,37,-1,-1,39,41,43,45,47,49,-1,51,-1,-1,53,55,57,59,61,63,65,67,69,71,73,75,77,79,-1,81,83,85,-1,87,-1,89,-1,-1,-1,-1,-1,-1,-1,-1,-1,-1,-1,-1,-1,-1,-1,-1,-1,-1,-1,-1,-1,-1,-1,-1,-1,-1,-1,-1,-1,-1,-1,-1,-1,-1,-1,-1,-1,-1],"loss_changes":[6.523691E1,6.8492615E1,